{"learner":{"attributes":{"best_iteration":"349","best_score":"0.541803177745863"},"feature_names":["shelf_grid_sum","shelf_grid_mean","shelf_grid_std","shelf_grid_top","shelf_grid_middle","shelf_grid_bottom","shelf_grid_left","shelf_grid_center","shelf_grid_right","shelf_mean_x","shelf_mean_y","shelf_std_x","shelf_std_y","shelf_heatmap_mean","shelf_heatmap_std","shelf_heatmap_max","shelf_heatmap_min","shelf_overlap_mean","shelf_overlap_sum","endpoint_grid_sum","endpoint_grid_mean","endpoint_grid_std","endpoint_grid_top","endpoint_grid_middle","endpoint_grid_bottom","endpoint_grid_left","endpoint_grid_center","endpoint_grid_right","endpoint_mean_x","endpoint_mean_y","endpoint_std_x","endpoint_std_y","endpoint_heatmap_mean","endpoint_heatmap_std","endpoint_heatmap_max","endpoint_heatmap_min","endpoint_overlap_mean","endpoint_overlap_sum"],"feature_types":["float","float","float","float","float","float","float","float","float","float","float","float","float","float","float","float","float","float","float","float","float","float","float","float","float","float","float","float","float","float","float","float","float","float","float","float","float","float"],"gradient_booster":{"model":{"gbtree_model_param":{"num_parallel_tree":"1","num_trees":"550"},"iteration_indptr":[0,1,2,3,4,5,6,7,8,9,10,11,12,13,14,15,16,17,18,19,20,21,22,23,24,25,26,27,28,29,30,31,32,33,34,35,36,37,38,39,40,41,42,43,44,45,46,47,48,49,50,51,52,53,54,55,56,57,58,59,60,61,62,63,64,65,66,67,68,69,70,71,72,73,74,75,76,77,78,79,80,81,82,83,84,85,86,87,88,89,90,91,92,93,94,95,96,97,98,99,100,101,102,103,104,105,106,107,108,109,110,111,112,113,114,115,116,117,118,119,120,121,122,123,124,125,126,127,128,129,130,131,132,133,134,135,136,137,138,139,140,141,142,143,144,145,146,147,148,149,150,151,152,153,154,155,156,157,158,159,160,161,162,163,164,165,166,167,168,169,170,171,172,173,174,175,176,177,178,179,180,181,182,183,184,185,186,187,188,189,190,191,192,193,194,195,196,197,198,199,200,201,202,203,204,205,206,207,208,209,210,211,212,213,214,215,216,217,218,219,220,221,222,223,224,225,226,227,228,229,230,231,232,233,234,235,236,237,238,239,240,241,242,243,244,245,246,247,248,249,250,251,252,253,254,255,256,257,258,259,260,261,262,263,264,265,266,267,268,269,270,271,272,273,274,275,276,277,278,279,280,281,282,283,284,285,286,287,288,289,290,291,292,293,294,295,296,297,298,299,300,301,302,303,304,305,306,307,308,309,310,311,312,313,314,315,316,317,318,319,320,321,322,323,324,325,326,327,328,329,330,331,332,333,334,335,336,337,338,339,340,341,342,343,344,345,346,347,348,349,350,351,352,353,354,355,356,357,358,359,360,361,362,363,364,365,366,367,368,369,370,371,372,373,374,375,376,377,378,379,380,381,382,383,384,385,386,387,388,389,390,391,392,393,394,395,396,397,398,399,400,401,402,403,404,405,406,407,408,409,410,411,412,413,414,415,416,417,418,419,420,421,422,423,424,425,426,427,428,429,430,431,432,433,434,435,436,437,438,439,440,441,442,443,444,445,446,447,448,449,450,451,452,453,454,455,456,457,458,459,460,461,462,463,464,465,466,467,468,469,470,471,472,473,474,475,476,477,478,479,480,481,482,483,484,485,486,487,488,489,490,491,492,493,494,495,496,497,498,499,500,501,502,503,504,505,506,507,508,509,510,511,512,513,514,515,516,517,518,519,520,521,522,523,524,525,526,527,528,529,530,531,532,533,534,535,536,537,538,539,540,541,542,543,544,545,546,547,548,549,550],"tree_info":[0,0,0,0,0,0,0,0,0,0,0,0,0,0,0,0,0,0,0,0,0,0,0,0,0,0,0,0,0,0,0,0,0,0,0,0,0,0,0,0,0,0,0,0,0,0,0,0,0,0,0,0,0,0,0,0,0,0,0,0,0,0,0,0,0,0,0,0,0,0,0,0,0,0,0,0,0,0,0,0,0,0,0,0,0,0,0,0,0,0,0,0,0,0,0,0,0,0,0,0,0,0,0,0,0,0,0,0,0,0,0,0,0,0,0,0,0,0,0,0,0,0,0,0,0,0,0,0,0,0,0,0,0,0,0,0,0,0,0,0,0,0,0,0,0,0,0,0,0,0,0,0,0,0,0,0,0,0,0,0,0,0,0,0,0,0,0,0,0,0,0,0,0,0,0,0,0,0,0,0,0,0,0,0,0,0,0,0,0,0,0,0,0,0,0,0,0,0,0,0,0,0,0,0,0,0,0,0,0,0,0,0,0,0,0,0,0,0,0,0,0,0,0,0,0,0,0,0,0,0,0,0,0,0,0,0,0,0,0,0,0,0,0,0,0,0,0,0,0,0,0,0,0,0,0,0,0,0,0,0,0,0,0,0,0,0,0,0,0,0,0,0,0,0,0,0,0,0,0,0,0,0,0,0,0,0,0,0,0,0,0,0,0,0,0,0,0,0,0,0,0,0,0,0,0,0,0,0,0,0,0,0,0,0,0,0,0,0,0,0,0,0,0,0,0,0,0,0,0,0,0,0,0,0,0,0,0,0,0,0,0,0,0,0,0,0,0,0,0,0,0,0,0,0,0,0,0,0,0,0,0,0,0,0,0,0,0,0,0,0,0,0,0,0,0,0,0,0,0,0,0,0,0,0,0,0,0,0,0,0,0,0,0,0,0,0,0,0,0,0,0,0,0,0,0,0,0,0,0,0,0,0,0,0,0,0,0,0,0,0,0,0,0,0,0,0,0,0,0,0,0,0,0,0,0,0,0,0,0,0,0,0,0,0,0,0,0,0,0,0,0,0,0,0,0,0,0,0,0,0,0,0,0,0,0,0,0,0,0,0,0,0,0,0,0,0,0,0,0,0,0,0,0,0,0,0,0,0,0,0,0,0,0,0,0,0,0,0,0,0,0,0,0,0,0,0,0,0,0,0,0,0,0,0,0,0,0,0,0,0,0,0,0,0,0,0,0,0,0,0,0,0,0,0,0,0,0,0,0,0,0,0,0,0,0,0,0,0,0,0],"trees":[{"base_weights":[3.469794E-2,8.4522945E-1,-2.6086109E0,1.004844E0,-2.213671E-1,-1.7114593E0,-3.319558E-2,1.1064751E0,5.324952E-1,1.3969634E-1,-1.2337011E0,-1.7873615E0,4.95545E-3,1.1158094E0,-1.0115913E-2,-2.1827884E-2,6.353399E-1,-2.2223867E-2,3.4877715E-1,-1.8307838E0,5.45454E-1,-1.9566078E0,-7.5416595E-1,1.1956624E-2,9.919667E-1,7.0391726E-1,-7.3288685E-1,4.3438986E-1,-1.6590912E-2,4.0690866E-3,-2.0595007E0,9.840865E-4,6.076132E-3,-2.027994E0,-0E0,-1.7403461E-2,4.3700647E-2,1.0052728E-2,-3.9209123E-3,1.4845394E-3,8.45733E-3,2.539088E-3,-1.1797884E-2,-7.0254593E-3,5.681471E-3,-2.2866203E-2,1.6940875E-3,-1.7094828E-2,-2.5194885E-2,-1.2109132E-3,9.1908645E-4,-3.4663691E-3,4.4811303E-3],"categories":[],"categories_nodes":[],"categories_segments":[],"categories_sizes":[],"default_left":[0,0,0,0,0,0,0,0,0,0,0,0,0,0,0,0,0,0,0,0,0,0,0,0,0,0,0,0,0,0,0,0,0,0,0,0,0,0,0,0,0,0,0,0,0,0,0,0,0,0,0,0,0],"id":0,"left_children":[1,3,5,7,9,11,-1,13,15,17,19,21,-1,23,-1,-1,25,-1,27,29,31,33,35,-1,37,39,41,43,-1,-1,45,-1,-1,47,49,-1,51,-1,-1,-1,-1,-1,-1,-1,-1,-1,-1,-1,-1,-1,-1,-1,-1],"loss_changes":[1.360364E3,8.303958E1,8.885193E1,1.9553162E1,2.367482E1,1.2406021E1,0E0,7.999542E0,2.2734522E1,2.4293337E1,1.9186287E1,9.794373E0,0E0,2.0168457E0,0E0,0E0,7.550192E0,0E0,8.33368E0,7.656662E0,8.543372E-3,7.703415E0,8.900961E0,0E0,3.0705872E0,5.4467125E0,2.1561484E0,7.0769386E0,0E0,0E0,6.673851E0,0E0,0E0,3.723587E0,4.622061E-2,0E0,1.2704817E0,0E0,0E0,0E0,0E0,0E0,0E0,0E0,0E0,0E0,0E0,0E0,0E0,0E0,0E0,0E0,0E0],"parents":[2147483647,0,0,1,1,2,2,3,3,4,4,5,5,7,7,8,8,9,9,10,10,11,11,13,13,16,16,18,18,19,19,20,20,21,21,22,22,24,24,25,25,26,26,27,27,30,30,33,33,34,34,36,36],"right_children":[2,4,6,8,10,12,-1,14,16,18,20,22,-1,24,-1,-1,26,-1,28,30,32,34,36,-1,38,40,42,44,-1,-1,46,-1,-1,48,50,-1,52,-1,-1,-1,-1,-1,-1,-1,-1,-1,-1,-1,-1,-1,-1,-1,-1],"split_conditions":[1.0110443E-3,9.654597E-4,1.1229606E-3,9.450986E-4,7.523951E-9,9.757941E0,-3.319558E-2,1.41E2,3.8401303E-3,1.1E2,9.180096E0,1.31E2,4.95545E-3,9.1618486E-4,-1.0115913E-2,-2.1827884E-2,9.4E1,-2.2223867E-2,9.1E1,3.6020327E-4,7.3E1,5.0326176E-3,8E1,1.1956624E-2,5.4489652E-11,9.19778E0,7.9E1,1.5488636E1,-1.6590912E-2,4.0690866E-3,8.6E1,9.840865E-4,6.076132E-3,1.22E2,9E1,-1.7403461E-2,8.1E1,1.0052728E-2,-3.9209123E-3,1.4845394E-3,8.45733E-3,2.539088E-3,-1.1797884E-2,-7.0254593E-3,5.681471E-3,-2.2866203E-2,1.6940875E-3,-1.7094828E-2,-2.5194885E-2,-1.2109132E-3,9.1908645E-4,-3.4663691E-3,4.4811303E-3],"split_indices":[14,14,14,14,17,31,0,22,15,22,11,23,0,14,0,0,7,0,4,36,7,15,8,0,16,12,3,29,0,0,5,0,0,23,3,0,7,0,0,0,0,0,0,0,0,0,0,0,0,0,0,0,0],"split_type":[0,0,0,0,0,0,0,0,0,0,0,0,0,0,0,0,0,0,0,0,0,0,0,0,0,0,0,0,0,0,0,0,0,0,0,0,0,0,0,0,0,0,0,0,0,0,0,0,0,0,0,0,0],"sum_hessian":[6.33E2,4.85E2,1.48E2,4.22E2,6.3E1,6.7E1,8.1E1,3.46E2,7.6E1,4.7E1,1.6E1,6.5E1,2E0,3.45E2,1E0,2E0,7.4E1,3E0,4.4E1,1.2E1,4E0,5.5E1,1E1,2.04E2,1.41E2,7.1E1,3E0,4.3E1,1E0,1E0,1.1E1,1E0,3E0,5.3E1,2E0,4E0,6E0,1.4E2,1E0,1.5E1,5.6E1,1E0,2E0,4E0,3.9E1,1E1,1E0,3.5E1,1.8E1,1E0,1E0,3E0,3E0],"tree_param":{"num_deleted":"0","num_feature":"38","num_nodes":"53","size_leaf_vector":"1"}},{"base_weights":[1.83685E-2,8.688992E-1,-2.505079E0,1.0099505E0,-7.9556316E-2,-1.6126654E0,-3.228368E0,1.1471983E-2,7.39375E-1,2.0324135E-1,-1.2360171E0,2.7663933E-2,-1.7660445E0,-3.2528787E0,-5.469934E-3,-5.150691E-1,7.915514E-1,4.7589898E-1,-8.9771324E-1,3.2359675E-2,-1.8867505E0,5.5334447E-3,-8.243583E-3,-1.9775732E0,-3.9487994E-1,-3.2881845E-2,-1.1819913E-2,8.285737E-3,-2.1682365E-2,8.314597E-1,-6.6837937E-1,6.38181E-1,-1.7049724E-2,6.113088E-3,-2.0222795E0,-1.0043212E-3,1.1566565E-3,1.6856164E-3,-2.2187322E-2,1.5845604E-3,-2.0211093E0,3.8987556E-1,-1.2776105E0,-4.209264E-3,8.654128E-3,-1.1791503E-2,3.8196675E-3,7.010322E-3,-7.936581E-3,-2.5897624E-2,3.5756796E-3,-1.7872528E-3,-2.0853741E-2,5.0039385E-3,-3.1357954E-4,-1.5650842E-2,-1.3858032E-4],"categories":[],"categories_nodes":[],"categories_segments":[],"categories_sizes":[],"default_left":[0,0,0,0,0,0,0,0,0,0,0,0,0,0,0,0,0,0,0,0,0,0,0,0,0,0,0,0,0,0,0,0,0,0,0,0,0,0,0,0,0,0,0,0,0,0,0,0,0,0,0,0,0,0,0,0,0],"id":1,"left_children":[1,3,5,7,9,11,13,-1,15,17,19,21,23,25,-1,27,29,31,33,35,37,-1,-1,39,41,-1,-1,-1,-1,43,45,47,-1,-1,49,-1,-1,-1,-1,-1,51,53,55,-1,-1,-1,-1,-1,-1,-1,-1,-1,-1,-1,-1,-1,-1],"loss_changes":[1.3112375E3,6.131131E1,9.3712524E1,1.3743225E1,1.9977152E1,1.808574E1,3.3613281E0,0E0,9.4023285E0,1.5094038E1,1.0150995E1,3.5642939E0,1.7834488E1,1.7348022E0,0E0,1.5258108E1,8.26281E0,1.5138045E1,1.8347286E1,6.845164E-2,6.0376244E0,0E0,0E0,5.714203E0,7.5141597E0,0E0,0E0,0E0,0E0,5.894104E0,2.6760597E0,3.9668474E0,0E0,0E0,9.252378E0,0E0,0E0,0E0,0E0,0E0,5.912918E0,3.41919E-1,1.6368952E0,0E0,0E0,0E0,0E0,0E0,0E0,0E0,0E0,0E0,0E0,0E0,0E0,0E0,0E0],"parents":[2147483647,0,0,1,1,2,2,3,3,4,4,5,5,6,6,8,8,9,9,10,10,11,11,12,12,13,13,15,15,16,16,17,17,18,18,19,19,20,20,23,23,24,24,29,29,30,30,31,31,34,34,40,40,41,41,42,42],"right_children":[2,4,6,8,10,12,14,-1,16,18,20,22,24,26,-1,28,30,32,34,36,38,-1,-1,40,42,-1,-1,-1,-1,44,46,48,-1,-1,50,-1,-1,-1,-1,-1,52,54,56,-1,-1,-1,-1,-1,-1,-1,-1,-1,-1,-1,-1,-1,-1],"split_conditions":[1.0086726E-3,9.654597E-4,1.1229606E-3,9.286122E-4,1.3E2,3.5622902E-4,9.6E1,1.1471983E-2,3.8401303E-3,9.607038E0,1.04E2,8.4E1,1.3E2,4.31567E-4,-5.469934E-3,9.180096E0,1.35E2,8.6E1,7.1E1,7.9E1,7.5E1,5.5334447E-3,-8.243583E-3,9.133454E0,1.18E2,-3.2881845E-2,-1.1819913E-2,8.285737E-3,-2.1682365E-2,9.2918525E-4,8E1,1.7453607E-8,-1.7049724E-2,6.113088E-3,8.4E1,-1.0043212E-3,1.1566565E-3,1.6856164E-3,-2.2187322E-2,1.5845604E-3,2.8624156E-9,9E1,7.8E1,-4.209264E-3,8.654128E-3,-1.1791503E-2,3.8196675E-3,7.010322E-3,-7.936581E-3,-2.5897624E-2,3.5756796E-3,-1.7872528E-3,-2.0853741E-2,5.0039385E-3,-3.1357954E-4,-1.5650842E-2,-1.3858032E-4],"split_indices":[14,14,14,14,26,36,4,0,15,31,25,5,23,36,0,11,22,6,6,3,4,0,0,12,25,0,0,0,0,14,4,17,0,0,4,0,0,0,0,0,17,4,6,0,0,0,0,0,0,0,0,0,0,0,0,0,0],"split_type":[0,0,0,0,0,0,0,0,0,0,0,0,0,0,0,0,0,0,0,0,0,0,0,0,0,0,0,0,0,0,0,0,0,0,0,0,0,0,0,0,0,0,0,0,0,0,0,0,0,0,0,0,0,0,0,0,0],"sum_hessian":[6.09E2,4.56E2,1.53E2,3.97E2,5.9E1,7E1,8.3E1,2.61E2,1.36E2,4.8E1,1.1E1,6E0,6.4E1,8.2E1,1E0,5E0,1.31E2,3.9E1,9E0,4E0,7E0,4E0,2E0,5.5E1,9E0,8E1,2E0,3E0,2E0,1.28E2,3E0,3.7E1,2E0,4E0,5E0,1E0,3E0,1E0,6E0,1E0,5.4E1,5E0,4E0,3E0,1.25E2,2E0,1E0,3.6E1,1E0,4E0,1E0,2E0,5.2E1,4E0,1E0,3E0,1E0],"tree_param":{"num_deleted":"0","num_feature":"38","num_nodes":"57","size_leaf_vector":"1"}},{"base_weights":[6.5106656E-3,8.3965534E-1,-2.4717748E0,1.0706229E0,2.183731E-1,-1.6027849E0,-3.2389448E0,1.0796854E0,-1.0006374E-2,6.5995276E-1,-1.461906E-1,-5.9565336E-1,-1.8514695E0,-3.2633547E-2,-5.4425853E-3,1.1621774E-2,9.5577765E-1,-1.060311E0,7.708493E-1,1.5718906E-1,-1.0874723E0,-1.4981699E0,1.759253E-1,-2.097419E0,-5.1139224E-1,9.7926533E-1,5.284185E-1,-1.7256409E-2,4.1783946E-3,8.148628E-1,-7.969543E-3,-1.5880446E0,3.613893E-1,1.0388527E-1,-2.0609467E0,-2.5301822E-2,-1.9682424E-2,4.9615386E-3,-7.0332605E-3,-1.7753384E-1,-2.1686637E0,6.281221E-3,-1.2665608E0,6.029868E-3,1.0002303E-2,-1.605013E-2,9.549123E-3,8.2489685E-4,8.248607E-3,2.2440206E-3,-2.5753684E-2,5.30074E-3,-4.73592E-3,-1.8772094E-2,5.986733E-3,-2.3383228E-2,1.6771884E-3,2.8616446E-3,-3.741172E-3,-7.1015027E-3,3.9384956E-3,-1.3186114E-2,-2.3997694E-2,1.0174923E-3,-1.8542346E-2],"categories":[],"categories_nodes":[],"categories_segments":[],"categories_sizes":[],"default_left":[0,0,0,0,0,0,0,0,0,0,0,0,0,0,0,0,0,0,0,0,0,0,0,0,0,0,0,0,0,0,0,0,0,0,0,0,0,0,0,0,0,0,0,0,0,0,0,0,0,0,0,0,0,0,0,0,0,0,0,0,0,0,0,0,0],"id":2,"left_children":[1,3,5,7,9,11,13,15,-1,17,19,21,23,-1,-1,-1,25,27,29,31,33,35,37,39,41,43,45,-1,-1,47,-1,49,51,53,55,57,-1,-1,-1,59,61,-1,63,-1,-1,-1,-1,-1,-1,-1,-1,-1,-1,-1,-1,-1,-1,-1,-1,-1,-1,-1,-1,-1,-1],"loss_changes":[1.3295597E3,6.880237E1,1.0232391E2,7.67688E0,2.1397732E1,1.8188187E1,3.434143E0,2.2549133E0,0E0,1.2234667E1,2.1110264E1,1.2233955E1,1.9101181E1,0E0,0E0,0E0,7.97287E-1,4.785652E0,4.584461E0,2.0408358E1,2.1285421E1,5.2896824E0,3.1438549E0,6.4930115E0,1.0325178E1,3.1729126E-1,1.0566591E1,0E0,0E0,2.5126648E-1,0E0,1.1549848E1,7.4399643E0,9.817978E0,6.791027E0,4.4178703E-1,0E0,0E0,0E0,1.2243072E0,6.286392E0,0E0,5.992755E0,0E0,0E0,0E0,0E0,0E0,0E0,0E0,0E0,0E0,0E0,0E0,0E0,0E0,0E0,0E0,0E0,0E0,0E0,0E0,0E0,0E0,0E0],"parents":[2147483647,0,0,1,1,2,2,3,3,4,4,5,5,6,6,7,7,9,9,10,10,11,11,12,12,16,16,17,17,18,18,19,19,20,20,21,21,22,22,23,23,24,24,25,25,26,26,29,29,31,31,32,32,33,33,34,34,35,35,39,39,40,40,42,42],"right_children":[2,4,6,8,10,12,14,16,-1,18,20,22,24,-1,-1,-1,26,28,30,32,34,36,38,40,42,44,46,-1,-1,48,-1,50,52,54,56,58,-1,-1,-1,60,62,-1,64,-1,-1,-1,-1,-1,-1,-1,-1,-1,-1,-1,-1,-1,-1,-1,-1,-1,-1,-1,-1,-1,-1],"split_conditions":[1.0086726E-3,9.4652106E-4,1.1229606E-3,1.48E2,3.9253208E-1,3.8880968E-1,9.6E1,9.1618486E-4,-1.0006374E-2,9.046911E0,9.558998E0,1.04E2,1.28E2,-3.2633547E-2,-5.4425853E-3,1.1621774E-2,9.498751E0,7.6E1,8.6E1,3.989053E-3,8.4E1,1E2,8.4E1,2.8624156E-9,1.0306825E-3,3.4580542E-12,9.509511E0,-1.7256409E-2,4.1783946E-3,6.1E1,-7.969543E-3,7.9E1,4.2123798E-1,9.0025215E0,8.6E1,7.2E1,-1.9682424E-2,4.9615386E-3,-7.0332605E-3,7.9E1,1.17E2,6.281221E-3,8.4E1,6.029868E-3,1.0002303E-2,-1.605013E-2,9.549123E-3,8.2489685E-4,8.248607E-3,2.2440206E-3,-2.5753684E-2,5.30074E-3,-4.73592E-3,-1.8772094E-2,5.986733E-3,-2.3383228E-2,1.6771884E-3,2.8616446E-3,-3.741172E-3,-7.1015027E-3,3.9384956E-3,-1.3186114E-2,-2.3997694E-2,1.0174923E-3,-1.8542346E-2],"split_indices":[14,14,14,22,37,37,4,14,0,12,31,25,23,0,0,0,30,5,6,15,7,25,5,17,14,16,30,0,0,6,0,5,37,11,5,4,0,0,0,4,27,0,7,0,0,0,0,0,0,0,0,0,0,0,0,0,0,0,0,0,0,0,0,0,0],"split_type":[0,0,0,0,0,0,0,0,0,0,0,0,0,0,0,0,0,0,0,0,0,0,0,0,0,0,0,0,0,0,0,0,0,0,0,0,0,0,0,0,0,0,0,0,0,0,0,0,0,0,0,0,0,0,0,0,0,0,0,0,0,0,0,0,0],"sum_hessian":[6.42E2,4.81E2,1.61E2,3.5E2,1.31E2,7.7E1,8.4E1,3.49E2,1E0,5.9E1,7.2E1,1.6E1,6.1E1,8.3E1,1E0,2.04E2,1.45E2,3E0,5.6E1,5.5E1,1.7E1,7E0,9E0,5.1E1,1E1,1.36E2,9E0,2E0,1E0,5.5E1,1E0,5E0,5E1,8E0,9E0,2E0,5E0,7E0,2E0,2E0,4.9E1,4E0,6E0,9E0,1.27E2,1E0,8E0,1E0,5.4E1,2E0,3E0,4.2E1,8E0,1E0,7E0,8E0,1E0,1E0,1E0,1E0,1E0,1.2E1,3.7E1,2E0,4E0],"tree_param":{"num_deleted":"0","num_feature":"38","num_nodes":"65","size_leaf_vector":"1"}},{"base_weights":[1.4509231E-2,7.9639065E-1,-2.5286975E0,9.889861E-1,-2.1064775E-1,-1.7032727E0,-3.22518E0,1.1108242E0,7.362059E-1,-8.910763E-2,-2.3814777E-2,-1.0552999E0,-1.9819982E0,-3.2830713E0,-6.502026E-3,4.361994E-1,1.1164594E0,-1.596988E-2,7.667376E-1,-9.0468186E-1,2.9447845E-1,-2.7602166E-2,-5.458323E-1,-2.1009274E0,-5.428087E-1,-6.122357E-3,-3.3091858E-2,-1.5586849E-3,7.188448E-3,1.1486443E-2,9.575563E-1,-5.0840104E-1,8.2173043E-1,2.1058981E-1,-2.045836E0,-1.7697189E-2,4.1688892E-1,1.5452164E-1,-1.078319E0,-2.1366863E0,-2.4952407E-3,-9.561077E-3,1.8093236E-2,-2.9868554E-4,9.799021E-3,8.14858E-3,-2.1366127E-2,8.637805E-3,-6.622533E-3,-5.79908E-3,5.1572993E-3,-0E0,-2.4519062E-2,-1.0806762E-2,5.762431E-3,-5.497281E-3,4.4855415E-3,-1.46011375E-2,-2.0149564E-4,-2.2630129E-2,-1.1674806E-2,-1.4297437E-4,9.143729E-4],"categories":[],"categories_nodes":[],"categories_segments":[],"categories_sizes":[],"default_left":[0,0,0,0,0,0,0,0,0,0,0,0,0,0,0,0,0,0,0,0,0,0,0,0,0,0,0,0,0,0,0,0,0,0,0,0,0,0,0,0,0,0,0,0,0,0,0,0,0,0,0,0,0,0,0,0,0,0,0,0,0,0,0],"id":3,"left_children":[1,3,5,7,9,11,13,15,17,19,-1,21,23,25,-1,27,29,-1,31,33,35,-1,37,39,41,-1,-1,-1,-1,-1,43,45,47,49,51,-1,53,55,57,59,-1,-1,61,-1,-1,-1,-1,-1,-1,-1,-1,-1,-1,-1,-1,-1,-1,-1,-1,-1,-1,-1,-1],"loss_changes":[1.234702E3,9.241287E1,7.794824E1,1.1286011E1,1.985664E1,1.0066528E1,9.099487E0,3.727417E-1,1.0615875E1,2.3477808E1,0E0,1.8140575E1,6.639801E0,2.8826904E0,0E0,8.377241E-1,3.967285E-2,0E0,9.705414E0,3.1159084E1,1.3489144E1,0E0,7.344656E0,2.0750122E0,1.2702016E0,0E0,0E0,0E0,0E0,0E0,1.2495804E0,1.4800487E1,8.517189E0,3.428422E0,9.893105E0,0E0,1.2265807E1,2.1001165E0,4.266593E0,2.1572723E0,0E0,0E0,1.6148293E-2,0E0,0E0,0E0,0E0,0E0,0E0,0E0,0E0,0E0,0E0,0E0,0E0,0E0,0E0,0E0,0E0,0E0,0E0,0E0,0E0],"parents":[2147483647,0,0,1,1,2,2,3,3,4,4,5,5,6,6,7,7,8,8,9,9,11,11,12,12,13,13,15,15,16,16,18,18,19,19,20,20,22,22,23,23,24,24,30,30,31,31,32,32,33,33,34,34,36,36,37,37,38,38,39,39,42,42],"right_children":[2,4,6,8,10,12,14,16,18,20,-1,22,24,26,-1,28,30,-1,32,34,36,-1,38,40,42,-1,-1,-1,-1,-1,44,46,48,50,52,-1,54,56,58,60,-1,-1,62,-1,-1,-1,-1,-1,-1,-1,-1,-1,-1,-1,-1,-1,-1,-1,-1,-1,-1,-1,-1],"split_conditions":[1.0110443E-3,9.6343836E-4,1.1229606E-3,9.286122E-4,1.32E2,4.476509E-3,1.37E2,7.3E1,9.2918525E-4,9.103106E0,-2.3814777E-2,4.150478E-3,1.34E2,6.8E1,-6.502026E-3,7.9E1,9.196597E-4,-1.596988E-2,3.8401303E-3,1.5583333E1,1.1E2,-2.7602166E-2,1.0549395E-3,9E1,7.3E1,-6.122357E-3,-3.3091858E-2,-1.5586849E-3,7.188448E-3,1.1486443E-2,7E1,1.6370832E1,1.35E2,4.256468E-3,4.73375E-1,-1.7697189E-2,7.4E1,9.046127E0,6.094742E-6,1.3E2,-2.4952407E-3,-9.561077E-3,7.7E1,-2.9868554E-4,9.799021E-3,8.14858E-3,-2.1366127E-2,8.637805E-3,-6.622533E-3,-5.79908E-3,5.1572993E-3,-0E0,-2.4519062E-2,-1.0806762E-2,5.762431E-3,-5.497281E-3,4.4855415E-3,-1.46011375E-2,-2.0149564E-4,-2.2630129E-2,-1.1674806E-2,-1.4297437E-4,9.143729E-4],"split_indices":[14,14,14,14,23,15,27,7,14,30,0,15,23,8,0,3,14,0,15,9,22,0,14,5,3,0,0,0,0,0,4,10,22,15,21,0,5,30,18,22,0,0,3,0,0,0,0,0,0,0,0,0,0,0,0,0,0,0,0,0,0,0,0],"split_type":[0,0,0,0,0,0,0,0,0,0,0,0,0,0,0,0,0,0,0,0,0,0,0,0,0,0,0,0,0,0,0,0,0,0,0,0,0,0,0,0,0,0,0,0,0,0,0,0,0,0,0,0,0,0,0,0,0,0,0,0,0,0,0],"sum_hessian":[6.19E2,4.74E2,1.45E2,3.98E2,7.6E1,6.8E1,7.7E1,2.66E2,1.32E2,7.3E1,3E0,2.2E1,4.6E1,7.5E1,2E0,3E0,2.63E2,1E0,1.31E2,2.3E1,5E1,4E0,1.8E1,4.2E1,4E0,1E0,7.4E1,1E0,2E0,2.13E2,5E1,5E0,1.26E2,1.2E1,1.1E1,2E0,4.8E1,8E0,1E1,4.1E1,1E0,2E0,2E0,1E0,4.9E1,3E0,2E0,1.23E2,3E0,3E0,9E0,2E0,9E0,4E0,4.4E1,2E0,6E0,7E0,3E0,3.5E1,6E0,1E0,1E0],"tree_param":{"num_deleted":"0","num_feature":"38","num_nodes":"63","size_leaf_vector":"1"}},{"base_weights":[2.0664815E-2,8.390685E-1,-2.507484E0,9.8117906E-1,-1.3782893E-1,-1.7954813E0,-3.160193E0,1.0826557E0,6.68464E-1,-1.7187685E0,-0E0,-5.7358515E-1,-2.0106993E0,-3.1853023E0,-5.3828615E-3,1.1434595E-2,9.640081E-1,-1.7187765E-2,7.085213E-1,3.8031237E-3,-2.363617E-2,3.2578996E-1,-8.020429E-1,4.701044E-2,-1.322115E-2,-2.0663645E0,-1.3816392E-1,-6.091744E-3,-3.2092373E0,3.8939998E-1,9.858764E-1,7.353787E-1,-9.92323E-3,-1.1028957E0,4.6653235E-1,2.977714E-1,-1.8238524E0,3.3244684E-1,-9.255221E-3,-1.1211288E0,-2.181651E0,-3.7168674E-3,1.1444087E-3,-3.2474086E-2,-1.1391575E-2,7.265042E-3,-1.5653893E-3,2.1474594E-3,9.901022E-3,7.887301E-3,-1.0230938E-3,-1.7579207E-2,3.8108963E-3,5.9053814E-3,-1.7042822E-3,-6.887471E-3,5.196796E-3,-2.525526E-2,3.8800316E-3,-1.4225912E-4,4.092633E-3,-1.3751381E-2,4.054727E-3,-2.6507786E-2,-1.8109905E-2],"categories":[],"categories_nodes":[],"categories_segments":[],"categories_sizes":[],"default_left":[0,0,0,0,0,0,0,0,0,0,0,0,0,0,0,0,0,0,0,0,0,0,0,0,0,0,0,0,0,0,0,0,0,0,0,0,0,0,0,0,0,0,0,0,0,0,0,0,0,0,0,0,0,0,0,0,0,0,0,0,0,0,0,0,0],"id":4,"left_children":[1,3,5,7,9,11,13,15,17,19,21,23,25,27,-1,-1,29,-1,31,-1,-1,33,35,37,-1,39,41,-1,43,45,47,49,-1,51,53,55,57,59,-1,61,63,-1,-1,-1,-1,-1,-1,-1,-1,-1,-1,-1,-1,-1,-1,-1,-1,-1,-1,-1,-1,-1,-1,-1,-1],"loss_changes":[1.3199196E3,6.71344E1,6.632843E1,1.2460876E1,1.3593023E1,1.8837265E1,3.1797485E0,9.666443E-1,1.1253166E1,7.8651867E0,1.539348E1,6.228611E0,6.269348E0,2.5343628E0,0E0,0E0,9.1106415E-1,0E0,5.5004616E0,0E0,0E0,8.896118E0,1.9800312E1,2.4691489E0,0E0,4.0891113E0,2.4522772E-1,0E0,2.0253906E0,1.2749524E0,2.2087097E-2,4.797287E0,0E0,4.6957984E0,3.2231417E0,2.3112702E0,1.5161673E1,2.3173696E-1,0E0,4.1444864E0,4.3170776E0,0E0,0E0,0E0,0E0,0E0,0E0,0E0,0E0,0E0,0E0,0E0,0E0,0E0,0E0,0E0,0E0,0E0,0E0,0E0,0E0,0E0,0E0,0E0,0E0],"parents":[2147483647,0,0,1,1,2,2,3,3,4,4,5,5,6,6,7,7,8,8,9,9,10,10,11,11,12,12,13,13,16,16,18,18,21,21,22,22,23,23,25,25,26,26,28,28,29,29,30,30,31,31,33,33,34,34,35,35,36,36,37,37,39,39,40,40],"right_children":[2,4,6,8,10,12,14,16,18,20,22,24,26,28,-1,-1,30,-1,32,-1,-1,34,36,38,-1,40,42,-1,44,46,48,50,-1,52,54,56,58,60,-1,62,64,-1,-1,-1,-1,-1,-1,-1,-1,-1,-1,-1,-1,-1,-1,-1,-1,-1,-1,-1,-1,-1,-1,-1,-1],"split_conditions":[1.0086726E-3,9.654597E-4,1.1229606E-3,9.3507784E-4,9.147344E0,9.177886E0,9.6E1,9.1618486E-4,3.8401303E-3,9.157965E0,9.552778E0,1.0717355E-3,9.708007E0,6.8E1,-5.3828615E-3,1.1434595E-2,3.4580542E-12,-1.7187765E-2,1.48E2,3.8031237E-3,-2.363617E-2,1.1E2,5.4664677E-9,1.5716666E1,-1.322115E-2,1.5153006E1,7.4E1,-6.091744E-3,4.31567E-4,9.230496E0,1.4816667E1,9.431768E0,-9.92323E-3,7.9E1,1.3E2,7.6E1,8.6E1,7E1,-9.255221E-3,1.4845834E1,1.555E1,-3.7168674E-3,1.1444087E-3,-3.2474086E-2,-1.1391575E-2,7.265042E-3,-1.5653893E-3,2.1474594E-3,9.901022E-3,7.887301E-3,-1.0230938E-3,-1.7579207E-2,3.8108963E-3,5.9053814E-3,-1.7042822E-3,-6.887471E-3,5.196796E-3,-2.525526E-2,3.8800316E-3,-1.4225912E-4,4.092633E-3,-1.3751381E-2,4.054727E-3,-2.6507786E-2,-1.8109905E-2],"split_indices":[14,14,14,14,12,12,4,14,15,11,31,14,12,8,0,0,16,0,22,0,0,22,17,9,0,28,4,0,36,11,28,11,0,7,26,4,8,7,0,9,9,0,0,0,0,0,0,0,0,0,0,0,0,0,0,0,0,0,0,0,0,0,0,0,0],"split_type":[0,0,0,0,0,0,0,0,0,0,0,0,0,0,0,0,0,0,0,0,0,0,0,0,0,0,0,0,0,0,0,0,0,0,0,0,0,0,0,0,0,0,0,0,0,0,0,0,0,0,0,0,0,0,0,0,0,0,0,0,0,0,0,0,0],"sum_hessian":[6.36E2,4.81E2,1.55E2,4.2E2,6.1E1,7.6E1,7.9E1,3.15E2,1.05E2,4E0,5.7E1,1.2E1,6.4E1,7.8E1,1E0,2.02E2,1.13E2,1E0,1.04E2,1E0,3E0,4.1E1,1.6E1,7E0,5E0,6.2E1,2E0,1E0,7.7E1,5E0,1.08E2,1.03E2,1E0,3E0,3.8E1,8E0,8E0,6E0,1E0,8E0,5.4E1,1E0,1E0,7.5E1,2E0,3E0,2E0,1E0,1.07E2,9.7E1,6E0,2E0,1E0,3.2E1,6E0,1E0,7E0,6E0,2E0,1E0,5E0,7E0,1E0,2.1E1,3.3E1],"tree_param":{"num_deleted":"0","num_feature":"38","num_nodes":"65","size_leaf_vector":"1"}},{"base_weights":[3.9114397E-2,8.40314E-1,-2.621787E0,1.0519193E0,2.758548E-1,-1.793574E0,-3.1809657E0,-9.873612E-3,1.0610083E0,-2.11091E-2,3.2999772E-1,-1.8910567E0,1.8947398E-2,-3.2051797E0,-5.3559463E-3,1.1285995E-2,9.585998E-1,4.2517927E-1,-7.2060245E-1,3.0907458E-3,-1.9376496E0,-5.344775E-3,4.149149E-3,-6.061286E-3,-3.228264E0,-2.8936577E-4,9.664073E-1,5.9284073E-1,-3.807095E-1,5.1941323E-1,-1.8571844E0,-1.2214122E0,-2.1911092E0,-7.534527E-3,-3.248281E-2,2.136721E-3,9.694993E-3,6.571708E-3,-3.3223564E-3,-1.6609222E-2,2.3543707E-3,2.6078653E-4,5.928644E-3,3.589403E-3,-2.3921974E-2,-2.006437E-3,-1.7508637E-2,-2.3421885E-2,-9.279613E-3],"categories":[],"categories_nodes":[],"categories_segments":[],"categories_sizes":[],"default_left":[0,0,0,0,0,0,0,0,0,0,0,0,0,0,0,0,0,0,0,0,0,0,0,0,0,0,0,0,0,0,0,0,0,0,0,0,0,0,0,0,0,0,0,0,0,0,0,0,0],"id":5,"left_children":[1,3,5,7,9,11,13,-1,15,-1,17,19,21,23,-1,-1,25,27,29,-1,31,-1,-1,-1,33,-1,35,37,39,41,43,45,47,-1,-1,-1,-1,-1,-1,-1,-1,-1,-1,-1,-1,-1,-1,-1,-1],"loss_changes":[1.3174154E3,5.6312286E1,6.0023193E1,7.449585E0,1.7447174E1,1.0824417E1,3.289978E0,0E0,1.0905457E0,0E0,1.3176551E1,6.604843E0,1.0863596E0,2.6395264E0,0E0,0E0,1.2319794E0,1.6325779E1,1.6601597E1,0E0,7.148575E0,0E0,0E0,0E0,1.2145996E0,0E0,7.3547363E-3,6.142338E0,1.7098364E1,1.4006054E-1,8.175917E0,8.641159E0,5.13295E0,0E0,0E0,0E0,0E0,0E0,0E0,0E0,0E0,0E0,0E0,0E0,0E0,0E0,0E0,0E0,0E0],"parents":[2147483647,0,0,1,1,2,2,3,3,4,4,5,5,6,6,8,8,10,10,11,11,12,12,13,13,16,16,17,17,18,18,20,20,24,24,26,26,27,27,28,28,29,29,30,30,31,31,32,32],"right_children":[2,4,6,8,10,12,14,-1,16,-1,18,20,22,24,-1,-1,26,28,30,-1,32,-1,-1,-1,34,-1,36,38,40,42,44,46,48,-1,-1,-1,-1,-1,-1,-1,-1,-1,-1,-1,-1,-1,-1,-1,-1],"split_conditions":[1.0166735E-3,9.4652106E-4,1.1229606E-3,1.4829166E1,3.8401303E-3,1.34E2,9.6E1,-9.873612E-3,9.1618486E-4,-2.11091E-2,1.3E2,9.087995E0,6.8E1,6.8E1,-5.3559463E-3,1.1285995E-2,7E1,7.3209065E-9,7.7E1,3.0907458E-3,3.7453073E-4,-5.344775E-3,4.149149E-3,-6.061286E-3,6.7E1,-2.8936577E-4,1.4816667E1,9.3E1,9.058757E0,8.1E1,1.5591666E1,8.3E1,1.1089164E-3,-7.534527E-3,-3.248281E-2,2.136721E-3,9.694993E-3,6.571708E-3,-3.3223564E-3,-1.6609222E-2,2.3543707E-3,2.6078653E-4,5.928644E-3,3.589403E-3,-2.3921974E-2,-2.006437E-3,-1.7508637E-2,-2.3421885E-2,-9.279613E-3],"split_indices":[14,14,14,10,15,23,4,0,14,0,23,12,3,8,0,0,4,17,6,0,36,0,0,0,3,0,28,7,30,7,10,8,14,0,0,0,0,0,0,0,0,0,0,0,0,0,0,0,0],"split_type":[0,0,0,0,0,0,0,0,0,0,0,0,0,0,0,0,0,0,0,0,0,0,0,0,0,0,0,0,0,0,0,0,0,0,0,0,0,0,0,0,0,0,0,0,0,0,0,0,0],"sum_hessian":[6.16E2,4.74E2,1.42E2,3.44E2,1.3E2,5.9E1,8.3E1,1E0,3.43E2,2E0,1.28E2,5.6E1,3E0,8.2E1,1E0,2E2,1.43E2,1.18E2,1E1,1E0,5.5E1,1E0,2E0,1E0,8.1E1,1E0,1.42E2,9.8E1,2E1,5E0,5E0,1.6E1,3.9E1,1E0,8E1,1E0,1.41E2,9.2E1,6E0,6E0,1.4E1,1E0,4E0,1E0,4E0,6E0,1E1,3.4E1,5E0],"tree_param":{"num_deleted":"0","num_feature":"38","num_nodes":"49","size_leaf_vector":"1"}},{"base_weights":[1.3155347E-2,7.969166E-1,-2.403726E0,9.324645E-1,-1.5449734E-1,-1.5938969E0,-3.0941384E0,1.0871406E0,7.039102E-1,-2.570461E-2,1.6000073E-2,-1.7467957E0,-4.4595492E-1,-3.1242013E-2,-1.227752E-2,5.513832E-1,1.0933043E-2,7.760204E-1,-3.0788553E-1,-6.224229E-1,6.1466146E-1,-9.811333E-1,-2.070253E0,3.0348045E-1,-1.2760863E0,-1.5915389E-3,7.938059E-3,8.0803764E-1,-6.496604E-1,-1.5656528E0,7.998987E-3,2.484159E-1,-1.5181485E0,-1.6554E-2,7.534705E-1,-3.811249E-1,-1.8960062E0,-1.1269113E0,-2.215563E0,-5.138171E-4,5.1875697E-3,9.796042E-4,-1.669088E-2,-3.0094774E-3,8.322448E-3,-1.15245385E-2,3.7936014E-3,4.744441E-3,-2.0885611E-2,4.0549217E-3,-9.253261E-3,-4.4040224E-3,-2.8650764E-2,2.5948236E-4,7.7495524E-3,4.552375E-3,-9.074638E-3,-2.0875651E-2,-2.2754737E-3,1.7167849E-3,-1.3512353E-2,-9.5048855E-4,-2.2690482E-2],"categories":[],"categories_nodes":[],"categories_segments":[],"categories_sizes":[],"default_left":[0,0,0,0,0,0,0,0,0,0,0,0,0,0,0,0,0,0,0,0,0,0,0,0,0,0,0,0,0,0,0,0,0,0,0,0,0,0,0,0,0,0,0,0,0,0,0,0,0,0,0,0,0,0,0,0,0,0,0,0,0,0,0],"id":6,"left_children":[1,3,5,7,9,11,13,15,17,-1,19,21,23,-1,-1,25,-1,27,29,31,33,35,37,39,41,-1,-1,43,45,47,-1,49,51,-1,53,55,57,59,61,-1,-1,-1,-1,-1,-1,-1,-1,-1,-1,-1,-1,-1,-1,-1,-1,-1,-1,-1,-1,-1,-1,-1,-1],"loss_changes":[1.1913489E3,6.147888E1,8.070343E1,1.3762024E1,2.5011507E1,1.1814606E1,3.2995605E-1,4.5043945E-2,1.2762039E1,0E0,2.2167156E1,1.351384E1,6.705826E0,0E0,0E0,1.0510542E0,0E0,7.844208E0,1.8048958E1,2.2345018E1,1.0610251E1,1.0577232E1,3.2004242E0,5.3175306E-1,3.0206318E0,0E0,0E0,4.518326E0,2.5840445E0,7.5530176E0,0E0,3.0887344E0,1.8730717E1,0E0,3.530903E-1,6.621275E0,1.8503323E0,2.6803732E0,3.7443085E0,0E0,0E0,0E0,0E0,0E0,0E0,0E0,0E0,0E0,0E0,0E0,0E0,0E0,0E0,0E0,0E0,0E0,0E0,0E0,0E0,0E0,0E0,0E0,0E0],"parents":[2147483647,0,0,1,1,2,2,3,3,4,4,5,5,6,6,7,7,8,8,10,10,11,11,12,12,15,15,17,17,18,18,19,19,20,20,21,21,22,22,23,23,24,24,27,27,28,28,29,29,31,31,32,32,34,34,35,35,36,36,37,37,38,38],"right_children":[2,4,6,8,10,12,14,16,18,-1,20,22,24,-1,-1,26,-1,28,30,32,34,36,38,40,42,-1,-1,44,46,48,-1,50,52,-1,54,56,58,60,62,-1,-1,-1,-1,-1,-1,-1,-1,-1,-1,-1,-1,-1,-1,-1,-1,-1,-1,-1,-1,-1,-1,-1,-1],"split_conditions":[1.0061054E-3,9.6343836E-4,1.1229606E-3,9.2309486E-4,7.4E1,1.29E2,1.6247864E1,7.3E1,9.424347E0,-2.570461E-2,9.109611E0,3.7453073E-4,1.29E2,-3.1242013E-2,-1.227752E-2,7.9E1,1.0933043E-2,1.35E2,9.470105E0,9.001481E0,6.6E1,8.3E1,1.16E2,8.1E1,6.4E1,-1.5915389E-3,7.938059E-3,3.8401303E-3,7.4E1,9.469697E-4,7.998987E-3,1.16E2,1.22E2,-1.6554E-2,9.469697E-4,9.849349E-12,8.7E1,4.1966612E-9,9.8E1,-5.138171E-4,5.1875697E-3,9.796042E-4,-1.669088E-2,-3.0094774E-3,8.322448E-3,-1.15245385E-2,3.7936014E-3,4.744441E-3,-2.0885611E-2,4.0549217E-3,-9.253261E-3,-4.4040224E-3,-2.8650764E-2,2.5948236E-4,7.7495524E-3,4.552375E-3,-9.074638E-3,-2.0875651E-2,-2.2754737E-3,1.7167849E-3,-1.3512353E-2,-9.5048855E-4,-2.2690482E-2],"split_indices":[14,14,14,14,5,23,28,7,11,0,11,36,26,0,0,3,0,22,11,11,3,5,27,7,6,0,0,15,6,13,0,25,22,0,13,16,7,17,25,0,0,0,0,0,0,0,0,0,0,0,0,0,0,0,0,0,0,0,0,0,0,0,0],"split_type":[0,0,0,0,0,0,0,0,0,0,0,0,0,0,0,0,0,0,0,0,0,0,0,0,0,0,0,0,0,0,0,0,0,0,0,0,0,0,0,0,0,0,0,0,0,0,0,0,0,0,0,0,0,0,0,0,0,0,0,0,0,0,0],"sum_hessian":[6.27E2,4.74E2,1.53E2,4.15E2,5.9E1,7.2E1,8.1E1,2.45E2,1.7E2,3E0,5.6E1,6.3E1,9E0,7.9E1,2E0,4E0,2.41E2,1.59E2,1.1E1,2.7E1,2.9E1,2E1,4.3E1,5E0,4E0,1E0,3E0,1.56E2,3E0,5E0,6E0,1.4E1,1.3E1,1E0,2.8E1,1.3E1,7E0,7E0,3.6E1,2E0,3E0,1E0,3E0,3E0,1.53E2,2E0,1E0,1E0,4E0,1.3E1,1E0,8E0,5E0,1E0,2.7E1,5E0,8E0,6E0,1E0,1E0,6E0,1E0,3.5E1],"tree_param":{"num_deleted":"0","num_feature":"38","num_nodes":"63","size_leaf_vector":"1"}},{"base_weights":[-2.1118099E-2,7.6948214E-1,-2.4257247E0,9.361233E-1,-3.4056705E-1,-1.5262966E0,-3.0626452E0,1.0815524E0,7.015953E-1,-1.36147505E-2,-1.3833699E0,-8.75155E-1,-1.9290173E0,-3.0897493E0,-3.4295756E-3,5.469388E-1,1.0879263E-2,7.34512E-1,-1.1447708E-2,2.599156E-1,-1.3578733E0,-1.0082956E-1,-2.6372204E-2,-2.7571398E-1,-1.6584187E0,-2.0061903E0,4.1319076E-3,-3.1130768E-2,-5.2677793E-3,-1.5835805E-3,7.878525E-3,-5.1087147E-1,7.8166914E-1,-3.2085648E-1,6.8222904E-1,2.3753175E-1,-2.3826227E-2,-9.363981E-1,5.6779115E-3,-1.0618713E-2,1.6907308E-1,-2.0462637E0,2.4589665E-2,-2.1490312E0,-8.933401E-3,-2.0888727E-2,7.7534723E-3,8.203362E-3,9.5107435E-4,3.1573346E-3,-1.5572269E-2,1.0844393E-3,6.988355E-3,3.712501E-3,3.5875608E-4,9.748168E-4,-1.3468518E-2,4.335104E-3,-6.4726323E-3,-6.7182974E-4,-2.272751E-2,-1.0586213E-4,9.7470713E-4,-6.3381004E-3,-2.2804745E-2],"categories":[],"categories_nodes":[],"categories_segments":[],"categories_sizes":[],"default_left":[0,0,0,0,0,0,0,0,0,0,0,0,0,0,0,0,0,0,0,0,0,0,0,0,0,0,0,0,0,0,0,0,0,0,0,0,0,0,0,0,0,0,0,0,0,0,0,0,0,0,0,0,0,0,0,0,0,0,0,0,0,0,0,0,0],"id":7,"left_children":[1,3,5,7,9,11,13,15,17,19,21,23,25,27,-1,29,-1,31,-1,33,35,37,-1,39,41,43,-1,-1,-1,-1,-1,45,47,49,51,53,-1,55,-1,-1,57,59,61,63,-1,-1,-1,-1,-1,-1,-1,-1,-1,-1,-1,-1,-1,-1,-1,-1,-1,-1,-1,-1,-1],"loss_changes":[1.1293741E3,8.306439E1,7.90777E1,1.2330597E1,1.9957327E1,1.4551773E1,4.862793E0,5.2490234E-2,1.0037811E1,1.7376722E1,2.1973875E1,1.1556866E1,7.8569336E0,3.0183105E0,0E0,1.0372906E0,0E0,9.235725E0,0E0,9.820483E0,1.385958E1,5.0379663E0,0E0,5.8635745E0,7.432701E0,3.657486E0,0E0,0E0,0E0,0E0,0E0,1.392888E1,3.679802E0,1.3995857E1,6.264305E-2,5.382912E-2,0E0,1.95367E0,0E0,0E0,2.6337876E0,3.6474419E0,1.741126E-2,4.63649E0,0E0,0E0,0E0,0E0,0E0,0E0,0E0,0E0,0E0,0E0,0E0,0E0,0E0,0E0,0E0,0E0,0E0,0E0,0E0,0E0,0E0],"parents":[2147483647,0,0,1,1,2,2,3,3,4,4,5,5,6,6,7,7,8,8,9,9,10,10,11,11,12,12,13,13,15,15,17,17,19,19,20,20,21,21,23,23,24,24,25,25,31,31,32,32,33,33,34,34,35,35,37,37,40,40,41,41,42,42,43,43],"right_children":[2,4,6,8,10,12,14,16,18,20,22,24,26,28,-1,30,-1,32,-1,34,36,38,-1,40,42,44,-1,-1,-1,-1,-1,46,48,50,52,54,-1,56,-1,-1,58,60,62,64,-1,-1,-1,-1,-1,-1,-1,-1,-1,-1,-1,-1,-1,-1,-1,-1,-1,-1,-1,-1,-1],"split_conditions":[1.0110443E-3,9.654597E-4,1.1229606E-3,9.2309486E-4,7.523951E-9,1.5940678E1,1.38E2,7.3E1,1.35E2,8.7E1,1.21E2,8.5E1,1.23E2,9.6E1,-3.4295756E-3,7.9E1,1.0879263E-2,3.8401303E-3,-1.1447708E-2,9.077582E0,7.7E1,8.164216E-9,-2.6372204E-2,1.5640226E1,8.9E1,1.1016998E-3,4.1319076E-3,-3.1130768E-2,-5.2677793E-3,-1.5835805E-3,7.878525E-3,7.8E1,9.413155E0,9.015796E0,3.47E2,6.8E1,-2.3826227E-2,7.5E1,5.6779115E-3,-1.0618713E-2,1.27E2,7.6E1,7.5E1,2.230581E-12,-8.933401E-3,-2.0888727E-2,7.7534723E-3,8.203362E-3,9.5107435E-4,3.1573346E-3,-1.5572269E-2,1.0844393E-3,6.988355E-3,3.712501E-3,3.5875608E-4,9.748168E-4,-1.3468518E-2,4.335104E-3,-6.4726323E-3,-6.7182974E-4,-2.272751E-2,-1.0586213E-4,9.7470713E-4,-6.3381004E-3,-2.2804745E-2],"split_indices":[14,14,14,14,17,29,27,7,22,4,22,8,22,4,0,3,0,34,0,11,6,17,0,29,4,14,0,0,0,0,0,3,11,11,19,3,0,3,0,0,22,4,3,16,0,0,0,0,0,0,0,0,0,0,0,0,0,0,0,0,0,0,0,0,0],"split_type":[0,0,0,0,0,0,0,0,0,0,0,0,0,0,0,0,0,0,0,0,0,0,0,0,0,0,0,0,0,0,0,0,0,0,0,0,0,0,0,0,0,0,0,0,0,0,0,0,0,0,0,0,0,0,0,0,0,0,0,0,0,0,0,0,0],"sum_hessian":[5.92E2,4.46E2,1.46E2,3.88E2,5.8E1,6.2E1,8.4E1,2.37E2,1.51E2,4.5E1,1.3E1,2.5E1,3.7E1,8.3E1,1E0,4E0,2.33E2,1.49E2,2E0,3.8E1,7E0,7E0,6E0,1.5E1,1E1,3.6E1,1E0,8.2E1,1E0,1E0,3E0,5E0,1.44E2,1.6E1,2.2E1,3E0,4E0,3E0,4E0,5E0,1E1,8E0,2E0,3.1E1,5E0,2E0,3E0,1.36E2,8E0,1.1E1,5E0,1E0,2.1E1,1E0,2E0,1E0,2E0,8E0,2E0,1E0,7E0,1E0,1E0,3E0,2.8E1],"tree_param":{"num_deleted":"0","num_feature":"38","num_nodes":"65","size_leaf_vector":"1"}},{"base_weights":[-5.831596E-3,7.757464E-1,-2.385567E0,9.2787683E-1,-2.54012E-1,-1.6335666E0,-3.0532593E-2,1.0518484E0,6.699352E-1,1.7817363E-1,-1.1971198E0,-0E0,-1.7717668E0,1.1016331E-2,9.174078E-1,6.9525474E-1,-1.3747411E-2,4.180316E-1,-2.2999138E-2,3.001092E-1,-2.2286148E0,5.6510814E-3,-9.382432E-1,5.775372E-2,-1.8548008E0,1.8251924E-1,9.3206537E-1,-8.626162E-1,7.250238E-1,5.6342983E-1,-5.073631E-1,5.197391E-1,-6.784648E-3,-2.769327E0,2.8329655E-3,-2.1500725E-3,-1.1423576E-2,5.4667676E-3,-6.5450766E-3,-1.9876102E0,-8.757451E-1,-1.5756626E-3,4.813451E-3,9.461899E-3,2.1609557E-3,2.449097E-3,-1.588834E-2,1.7494874E-3,8.222361E-3,6.8066022E-3,-2.7953084E-3,-1.2036693E-2,1.1670742E-3,6.7836716E-4,5.603199E-3,-1.131742E-2,-3.0247552E-2,-8.4886635E-3,-2.0531759E-2,-1.649242E-2,-6.85402E-4],"categories":[],"categories_nodes":[],"categories_segments":[],"categories_sizes":[],"default_left":[0,0,0,0,0,0,0,0,0,0,0,0,0,0,0,0,0,0,0,0,0,0,0,0,0,0,0,0,0,0,0,0,0,0,0,0,0,0,0,0,0,0,0,0,0,0,0,0,0,0,0,0,0,0,0,0,0,0,0,0,0],"id":8,"left_children":[1,3,5,7,9,11,-1,13,15,17,19,21,23,-1,25,27,-1,29,-1,31,33,-1,35,37,39,41,43,45,47,49,51,53,-1,55,-1,-1,-1,-1,-1,57,59,-1,-1,-1,-1,-1,-1,-1,-1,-1,-1,-1,-1,-1,-1,-1,-1,-1,-1,-1,-1],"loss_changes":[1.1960988E3,7.6125336E1,7.4378296E1,1.2617584E1,2.599384E1,1.7402603E1,0E0,6.816101E-1,8.135685E0,2.6926369E1,3.1749367E1,4.237637E0,1.1072601E1,0E0,6.124649E-1,7.057968E0,0E0,5.808051E0,0E0,2.2710686E0,1.7331787E1,0E0,6.1517E-2,1.7399851E0,6.814926E0,4.1310072E-1,4.984436E-1,2.9364288E0,7.082382E0,3.787921E0,2.8564386E0,4.5882702E-2,0E0,3.4396362E-1,0E0,0E0,0E0,0E0,0E0,2.3720093E0,5.958887E0,0E0,0E0,0E0,0E0,0E0,0E0,0E0,0E0,0E0,0E0,0E0,0E0,0E0,0E0,0E0,0E0,0E0,0E0,0E0,0E0],"parents":[2147483647,0,0,1,1,2,2,3,3,4,4,5,5,7,7,8,8,9,9,10,10,11,11,12,12,14,14,15,15,17,17,19,19,20,20,22,22,23,23,24,24,25,25,26,26,27,27,28,28,29,29,30,30,31,31,33,33,39,39,40,40],"right_children":[2,4,6,8,10,12,-1,14,16,18,20,22,24,-1,26,28,-1,30,-1,32,34,-1,36,38,40,42,44,46,48,50,52,54,-1,56,-1,-1,-1,-1,-1,58,60,-1,-1,-1,-1,-1,-1,-1,-1,-1,-1,-1,-1,-1,-1,-1,-1,-1,-1,-1,-1],"split_conditions":[1.0086726E-3,9.654597E-4,1.1229606E-3,9.286122E-4,9.509568E0,3.5622902E-4,-3.0532593E-2,9.1618486E-4,9.3E1,1.32E2,4.9556874E-9,8.4E1,3.84166E-9,1.1016331E-2,7.3E1,9.2918525E-4,-1.3747411E-2,1.31E2,-2.2999138E-2,9.2E1,1.5870833E1,5.6510814E-3,7.7E1,8.2E1,1.3E2,7.9E1,1.6166666E1,6.6E1,9.19778E0,5.158052E-3,7.8E1,4.262795E-3,-6.784648E-3,8.956956E0,2.8329655E-3,-2.1500725E-3,-1.1423576E-2,5.4667676E-3,-6.5450766E-3,2.0197004E-12,8E1,-1.5756626E-3,4.813451E-3,9.461899E-3,2.1609557E-3,2.449097E-3,-1.588834E-2,1.7494874E-3,8.222361E-3,6.8066022E-3,-2.7953084E-3,-1.2036693E-2,1.1670742E-3,6.7836716E-4,5.603199E-3,-1.131742E-2,-3.0247552E-2,-8.4886635E-3,-2.0531759E-2,-1.649242E-2,-6.85402E-4],"split_indices":[14,14,14,14,31,36,0,14,6,23,17,5,17,0,7,14,0,26,0,7,9,0,3,5,23,3,9,3,12,15,3,15,0,11,0,0,0,0,0,35,8,0,0,0,0,0,0,0,0,0,0,0,0,0,0,0,0,0,0,0,0],"split_type":[0,0,0,0,0,0,0,0,0,0,0,0,0,0,0,0,0,0,0,0,0,0,0,0,0,0,0,0,0,0,0,0,0,0,0,0,0,0,0,0,0,0,0,0,0,0,0,0,0,0,0,0,0,0,0,0,0,0,0,0,0],"sum_hessian":[6.41E2,4.83E2,1.58E2,4.21E2,6.2E1,7.6E1,8.2E1,2.82E2,1.39E2,4.3E1,1.9E1,6E0,7E1,2E2,8.2E1,1.38E2,1E0,4E1,3E0,8E0,1.1E1,4E0,2E0,3E0,6.7E1,2E0,8E1,2E0,1.36E2,3.5E1,5E0,7E0,1E0,9E0,2E0,1E0,1E0,2E0,1E0,5.8E1,9E0,1E0,1E0,7.8E1,2E0,1E0,1E0,2.1E1,1.15E2,3.1E1,4E0,2E0,3E0,1E0,6E0,2E0,7E0,4E0,5.4E1,4E0,5E0],"tree_param":{"num_deleted":"0","num_feature":"38","num_nodes":"61","size_leaf_vector":"1"}},{"base_weights":[-1.7641602E-2,7.4791616E-1,-2.4105515E0,9.237439E-1,-2.1601178E-1,-1.7129444E0,-2.9686472E0,1.0091152E0,4.803337E-1,1.12722814E-1,-1.1788079E0,-9.5653284E-1,-1.9740285E0,-2.991219E-2,-5.088779E-3,1.08570075E-2,8.934261E-1,-2.0709474E-2,5.9223384E-1,-1.1359665E0,2.8728485E-1,-1.5167278E0,4.4257385E-3,-2.563465E-2,-6.300145E-1,-3.248523E-1,-2.0326712E0,9.1976297E-1,2.4734516E-1,-1.191098E-1,7.411947E-1,-1.9405258E0,5.502878E-3,-1.0779808E0,3.994929E-1,3.812985E-3,-1.8222529E0,4.2436567E-1,-1.0758811E0,-6.680681E-3,1.307897E-3,-1.2702407E0,-2.193032E0,5.2268887E-3,9.40032E-3,8.321993E-3,-1.5808899E-2,6.795216E-3,-8.00921E-3,7.965717E-3,-4.3240474E-3,-2.5897114E-2,2.7810852E-3,3.845176E-3,-1.7269861E-2,4.597708E-3,-1.1366458E-2,-2.3662604E-2,-3.4978702E-3,-1.01906764E-4,5.3331507E-3,-1.5052957E-2,-6.775868E-4,-2.9066398E-3,-2.021444E-2,-2.379044E-2,-1.2975421E-2],"categories":[],"categories_nodes":[],"categories_segments":[],"categories_sizes":[],"default_left":[0,0,0,0,0,0,0,0,0,0,0,0,0,0,0,0,0,0,0,0,0,0,0,0,0,0,0,0,0,0,0,0,0,0,0,0,0,0,0,0,0,0,0,0,0,0,0,0,0,0,0,0,0,0,0,0,0,0,0,0,0,0,0,0,0,0,0],"id":9,"left_children":[1,3,5,7,9,11,13,15,17,19,21,23,25,-1,-1,-1,27,-1,29,31,33,35,-1,-1,37,39,41,43,45,47,49,51,-1,53,55,-1,57,59,61,-1,-1,63,65,-1,-1,-1,-1,-1,-1,-1,-1,-1,-1,-1,-1,-1,-1,-1,-1,-1,-1,-1,-1,-1,-1,-1,-1],"loss_changes":[1.1487454E3,8.077582E1,5.3625122E1,1.4583862E1,2.366081E1,1.1642807E1,2.736084E0,1.809082E0,2.0206356E1,1.2448009E1,1.11887245E1,8.559488E0,4.036255E0,0E0,0E0,0E0,2.0379944E0,0E0,7.0380497E0,1.0703713E1,8.022487E0,1.0117229E1,0E0,0E0,8.983751E0,6.102549E-1,2.8589325E0,4.4086456E-1,8.725502E0,7.090574E0,3.890339E0,8.15291E0,0E0,4.594981E0,4.8068852E0,0E0,1.011517E1,3.418151E-1,5.368431E0,0E0,0E0,7.2757034E0,3.041748E0,0E0,0E0,0E0,0E0,0E0,0E0,0E0,0E0,0E0,0E0,0E0,0E0,0E0,0E0,0E0,0E0,0E0,0E0,0E0,0E0,0E0,0E0,0E0,0E0],"parents":[2147483647,0,0,1,1,2,2,3,3,4,4,5,5,6,6,7,7,8,8,9,9,10,10,11,11,12,12,16,16,18,18,19,19,20,20,21,21,24,24,25,25,26,26,27,27,28,28,29,29,30,30,31,31,33,33,34,34,36,36,37,37,38,38,41,41,42,42],"right_children":[2,4,6,8,10,12,14,16,18,20,22,24,26,-1,-1,-1,28,-1,30,32,34,36,-1,-1,38,40,42,44,46,48,50,52,-1,54,56,-1,58,60,62,-1,-1,64,66,-1,-1,-1,-1,-1,-1,-1,-1,-1,-1,-1,-1,-1,-1,-1,-1,-1,-1,-1,-1,-1,-1,-1,-1],"split_conditions":[1.0166735E-3,9.654597E-4,1.1229606E-3,9.450986E-4,7.523951E-9,4.476509E-3,9.6E1,9.1618486E-4,3.8401303E-3,7.5E1,9.258382E0,4.1182954E-3,7.3E1,-2.991219E-2,-5.088779E-3,1.08570075E-2,9.498751E0,-2.0709474E-2,9.19778E0,8.1E1,1.1E2,3.6020327E-4,4.4257385E-3,-2.563465E-2,9.328085E0,9E1,1.0374712E-3,3.4580542E-12,4.1827812E-9,9.087995E0,9.4E1,8.4E1,5.502878E-3,6.8E1,1.6416666E1,3.812985E-3,1.3300876E-8,8.1E1,9.449514E0,-6.680681E-3,1.307897E-3,1.19E2,1.104308E-3,5.2268887E-3,9.40032E-3,8.321993E-3,-1.5808899E-2,6.795216E-3,-8.00921E-3,7.965717E-3,-4.3240474E-3,-2.5897114E-2,2.7810852E-3,3.845176E-3,-1.7269861E-2,4.597708E-3,-1.1366458E-2,-2.3662604E-2,-3.4978702E-3,-1.01906764E-4,5.3331507E-3,-1.5052957E-2,-6.775868E-4,-2.9066398E-3,-2.021444E-2,-2.379044E-2,-1.2975421E-2],"split_indices":[14,14,14,14,17,15,4,14,15,5,30,15,4,0,0,0,30,0,12,8,22,36,0,0,31,3,14,35,17,12,7,3,0,3,9,0,17,7,12,0,0,23,14,0,0,0,0,0,0,0,0,0,0,0,0,0,0,0,0,0,0,0,0,0,0,0,0],"split_type":[0,0,0,0,0,0,0,0,0,0,0,0,0,0,0,0,0,0,0,0,0,0,0,0,0,0,0,0,0,0,0,0,0,0,0,0,0,0,0,0,0,0,0,0,0,0,0,0,0,0,0,0,0,0,0,0,0,0,0,0,0,0,0,0,0,0,0],"sum_hessian":[6.25E2,4.74E2,1.51E2,4.01E2,7.3E1,6.9E1,8.2E1,3.35E2,6.6E1,5.5E1,1.8E1,1.9E1,5E1,8.1E1,1E0,1.96E2,1.39E2,2E0,6.4E1,6E0,4.9E1,1.5E1,3E0,2E0,1.7E1,2E0,4.8E1,1.33E2,6E0,1.1E1,5.3E1,4E0,2E0,3E0,4.6E1,2E0,1.3E1,5E0,1.2E1,1E0,1E0,1E1,3.8E1,8E0,1.25E2,5E0,1E0,5E0,6E0,5.1E1,2E0,3E0,1E0,1E0,2E0,4.5E1,1E0,9E0,4E0,1E0,4E0,8E0,4E0,5E0,5E0,3E1,8E0],"tree_param":{"num_deleted":"0","num_feature":"38","num_nodes":"67","size_leaf_vector":"1"}},{"base_weights":[-3.6940412E-3,7.7007717E-1,-2.3157048E0,9.066473E-1,-1.6749181E-1,-1.5244638E0,-3.0282803E0,1.0327975E0,6.3221794E-1,1.9047837E-1,-1.0188932E0,-1.6313577E0,-0E0,-3.06429E-2,-1.0372637E-2,3.7521526E-1,1.0382629E-2,-8.299385E-1,6.855925E-1,-1.5264988E0,4.0828368E-1,-9.82905E-2,-2.1448605E0,-3.4221512E-1,-1.7223197E0,-6.2333667E-3,4.5928834E-3,-1.5939208E-3,6.398817E-3,-2.057141E-2,6.4057694E-3,7.264936E-1,-7.287398E-1,3.82595E-3,-2.1244211E-2,4.9490875E-1,-1.3917344E-2,-1.1911513E0,6.8208007E-3,1.6057773E-3,-2.511434E-2,4.045748E-3,-8.417538E-3,-1.8621733E0,-7.4292195E-1,7.4914396E-3,-9.797497E-3,2.2930212E-3,-1.1578544E-2,-7.67326E-3,5.891253E-3,-1.5450003E-2,6.2122534E-4,-1.6402788E-2,-2.6318884E-2,-1.6194785E-2,9.4695506E-4],"categories":[],"categories_nodes":[],"categories_segments":[],"categories_sizes":[],"default_left":[0,0,0,0,0,0,0,0,0,0,0,0,0,0,0,0,0,0,0,0,0,0,0,0,0,0,0,0,0,0,0,0,0,0,0,0,0,0,0,0,0,0,0,0,0,0,0,0,0,0,0,0,0,0,0,0,0],"id":10,"left_children":[1,3,5,7,9,11,13,15,17,19,21,23,25,-1,-1,27,-1,29,31,33,35,37,39,41,43,-1,-1,-1,-1,-1,-1,45,47,-1,-1,49,-1,51,-1,-1,-1,-1,-1,53,55,-1,-1,-1,-1,-1,-1,-1,-1,-1,-1,-1,-1],"loss_changes":[1.1128866E3,5.9894257E1,8.288397E1,1.3270599E1,1.85635E1,1.2331039E1,2.21875E0,4.645996E-1,1.0778053E1,1.6591993E1,1.8223097E1,7.529831E0,2.009429E0,0E0,0E0,7.1601164E-1,0E0,1.0482515E1,7.875866E0,6.694422E0,6.6802397E0,1.0244569E1,7.399273E0,2.6225731E0,7.3962097E0,0E0,0E0,0E0,0E0,0E0,0E0,5.5031433E0,2.0027928E0,0E0,0E0,4.9533205E0,0E0,2.4616156E0,0E0,0E0,0E0,0E0,0E0,4.991104E0,7.6480265E0,0E0,0E0,0E0,0E0,0E0,0E0,0E0,0E0,0E0,0E0,0E0,0E0],"parents":[2147483647,0,0,1,1,2,2,3,3,4,4,5,5,6,6,7,7,8,8,9,9,10,10,11,11,12,12,15,15,17,17,18,18,19,19,20,20,21,21,22,22,23,23,24,24,31,31,32,32,35,35,37,37,43,43,44,44],"right_children":[2,4,6,8,10,12,14,16,18,20,22,24,26,-1,-1,28,-1,30,32,34,36,38,40,42,44,-1,-1,-1,-1,-1,-1,46,48,-1,-1,50,-1,52,-1,-1,-1,-1,-1,54,56,-1,-1,-1,-1,-1,-1,-1,-1,-1,-1,-1,-1],"split_conditions":[1.0086726E-3,9.654597E-4,1.1229606E-3,9.286122E-4,6.379624E-9,9.74328E0,4.31567E-4,7.3E1,3.8401303E-3,1.1E2,9.501426E0,7.4E1,9.572933E0,-3.06429E-2,-1.0372637E-2,7.9E1,1.0382629E-2,7.8E1,9.4E1,7.7E1,1.36E2,7.3E1,6.6E1,8.5E1,1.31E2,-6.2333667E-3,4.5928834E-3,-1.5939208E-3,6.398817E-3,-2.057141E-2,6.4057694E-3,9.2E1,7.9E1,3.82595E-3,-2.1244211E-2,4.0216395E-3,-1.3917344E-2,9.1E1,6.8208007E-3,1.6057773E-3,-2.511434E-2,4.045748E-3,-8.417538E-3,1.5920834E1,8E1,7.4914396E-3,-9.797497E-3,2.2930212E-3,-1.1578544E-2,-7.67326E-3,5.891253E-3,-1.5450003E-2,6.2122534E-4,-1.6402788E-2,-2.6318884E-2,-1.6194785E-2,9.4695506E-4],"split_indices":[14,14,14,14,17,31,36,7,15,22,31,4,12,0,0,3,0,3,7,6,26,6,6,7,23,0,0,0,0,0,0,3,3,0,0,15,0,7,0,0,0,0,0,9,8,0,0,0,0,0,0,0,0,0,0,0,0],"split_type":[0,0,0,0,0,0,0,0,0,0,0,0,0,0,0,0,0,0,0,0,0,0,0,0,0,0,0,0,0,0,0,0,0,0,0,0,0,0,0,0,0,0,0,0,0,0,0,0,0,0,0,0,0,0,0,0,0],"sum_hessian":[6.2E2,4.65E2,1.55E2,4.06E2,5.9E1,7.5E1,8E1,2.76E2,1.3E2,4.2E1,1.7E1,7E1,5E0,7.8E1,2E0,3E0,2.73E2,4E0,1.26E2,4E0,3.8E1,1E1,7E0,5E0,6.5E1,2E0,3E0,1E0,2E0,2E0,2E0,1.23E2,3E0,1E0,3E0,3.7E1,1E0,4E0,6E0,1E0,6E0,2E0,3E0,5.6E1,9E0,1.22E2,1E0,1E0,2E0,2E0,3.5E1,3E0,1E0,4.6E1,1E1,4E0,5E0],"tree_param":{"num_deleted":"0","num_feature":"38","num_nodes":"57","size_leaf_vector":"1"}},{"base_weights":[-9.7830985E-3,8.059415E-1,-2.2635238E0,9.966486E-1,3.0777484E-1,-1.5193808E0,-3.0060482E0,-9.748509E-3,1.0059932E0,-8.8875717E-1,4.647678E-1,-1.0167979E0,-1.8071858E0,-3.0370247E-2,-1.1549837E-2,1.0113151E0,6.257133E-2,-2.46055E-1,-2.1049503E-2,-1.9387276E-1,6.27229E-1,-2.6294915E-2,-7.0023704E-1,4.2470354E-3,-1.8612366E0,1.0704896E-2,9.1980046E-1,5.772461E-3,-4.333891E-3,2.7066064E-1,-1.747517E-2,3.5179043E-1,-1.0928811E0,-1.347227E-2,6.652477E-1,1.269251E-1,-9.7373974E-1,-1.9166095E0,4.0370408E-3,3.590339E-3,9.290676E-3,6.602345E-3,-1.3729651E-2,6.8470784E-3,-2.4503702E-3,4.965954E-4,-1.4407012E-2,-4.1424735E-3,7.3479735E-3,4.852366E-3,-5.9867296E-3,3.0448004E-3,-1.1217858E-2,-1.4012595E-2,-2.1595795E-2],"categories":[],"categories_nodes":[],"categories_segments":[],"categories_sizes":[],"default_left":[0,0,0,0,0,0,0,0,0,0,0,0,0,0,0,0,0,0,0,0,0,0,0,0,0,0,0,0,0,0,0,0,0,0,0,0,0,0,0,0,0,0,0,0,0,0,0,0,0,0,0,0,0,0,0],"id":11,"left_children":[1,3,5,7,9,11,13,-1,15,17,19,21,23,-1,-1,25,27,29,-1,31,33,-1,35,-1,37,-1,39,-1,-1,41,-1,43,45,-1,47,49,51,53,-1,-1,-1,-1,-1,-1,-1,-1,-1,-1,-1,-1,-1,-1,-1,-1,-1],"loss_changes":[1.134444E3,4.259958E1,8.559741E1,7.0081177E0,2.422725E1,1.0030304E1,7.175293E-1,0E0,1.466095E0,1.0971716E1,1.225634E1,1.4672779E1,7.2071686E0,0E0,0E0,5.7089233E-1,1.0303329E0,9.154787E0,0E0,1.1741358E1,7.659069E0,0E0,6.7689753E0,0E0,7.3212585E0,0E0,2.3918152E-1,0E0,0E0,6.5980287E0,0E0,3.1921601E0,3.7872372E0,0E0,7.0935097E0,2.3590758E0,4.5864677E0,2.8785248E0,0E0,0E0,0E0,0E0,0E0,0E0,0E0,0E0,0E0,0E0,0E0,0E0,0E0,0E0,0E0,0E0,0E0],"parents":[2147483647,0,0,1,1,2,2,3,3,4,4,5,5,6,6,8,8,9,9,10,10,11,11,12,12,15,15,16,16,17,17,19,19,20,20,22,22,24,24,26,26,29,29,31,31,32,32,34,34,35,35,36,36,37,37],"right_children":[2,4,6,8,10,12,14,-1,16,18,20,22,24,-1,-1,26,28,30,-1,32,34,-1,36,-1,38,-1,40,-1,-1,42,-1,44,46,-1,48,50,52,54,-1,-1,-1,-1,-1,-1,-1,-1,-1,-1,-1,-1,-1,-1,-1,-1,-1],"split_conditions":[1.0086726E-3,9.450986E-4,1.1248941E-3,1.4829166E1,9.168219E0,4.547471E-3,1.6247864E1,-9.748509E-3,5.5679964E-11,1.3E2,9.100946E0,4.150478E-3,3.3856244E-4,-3.0370247E-2,-1.1549837E-2,9.152793E-4,7.2E1,1.5517906E1,-2.1049503E-2,3.61E2,6.7E1,-2.6294915E-2,1.0306825E-3,4.2470354E-3,3.7E2,1.0704896E-2,7.3E1,5.772461E-3,-4.333891E-3,9.358239E0,-1.747517E-2,3.770039E-4,4.6910595E-9,-1.347227E-2,1.1E2,4.435296E-3,9.133454E0,9.052807E0,4.0370408E-3,3.590339E-3,9.290676E-3,6.602345E-3,-1.3729651E-2,6.8470784E-3,-2.4503702E-3,4.965954E-4,-1.4407012E-2,-4.1424735E-3,7.3479735E-3,4.852366E-3,-5.9867296E-3,3.0448004E-3,-1.1217858E-2,-1.4012595E-2,-2.1595795E-2],"split_indices":[33,33,33,10,12,34,28,0,16,23,30,34,36,0,0,33,3,28,0,19,7,0,33,0,19,0,7,0,0,11,0,36,17,0,22,34,12,11,0,0,0,0,0,0,0,0,0,0,0,0,0,0,0,0,0],"split_type":[0,0,0,0,0,0,0,0,0,0,0,0,0,0,0,0,0,0,0,0,0,0,0,0,0,0,0,0,0,0,0,0,0,0,0,0,0,0,0,0,0,0,0,0,0,0,0,0,0,0,0,0,0,0,0],"sum_hessian":[6.15E2,4.52E2,1.63E2,3.26E2,1.26E2,8.3E1,8E1,1E0,3.25E2,1.4E1,1.12E2,3.2E1,5.1E1,7.8E1,2E0,3.23E2,2E0,1E1,4E0,2.2E1,9E1,4E0,2.8E1,1E0,5E1,1.89E2,1.34E2,1E0,1E0,8E0,2E0,1.4E1,8E0,1E0,8.9E1,7E0,2.1E1,4.9E1,1E0,3E0,1.31E2,7E0,1E0,9E0,5E0,2E0,6E0,5E0,8.4E1,5E0,2E0,2E0,1.9E1,1.8E1,3.1E1],"tree_param":{"num_deleted":"0","num_feature":"38","num_nodes":"55","size_leaf_vector":"1"}},{"base_weights":[2.2243073E-2,7.718108E-1,-2.2408373E0,8.9452404E-1,-2.0826945E-2,-1.5146322E0,-2.8822567E0,1.0292822E-2,6.8304807E-1,1.2880884E-1,-2.2477482E-2,-9.647662E-1,-1.8951342E0,-2.9054847E0,-4.8523704E-3,7.472514E-1,-3.2546535E-1,-6.8253696E-1,3.9861724E-1,-2.2251411E-1,-1.6868612E0,4.2257993E-3,-1.9644097E0,-2.9407565E-2,-1.0101018E-2,7.662119E-1,-9.699767E-3,7.3433695E-3,-1.5521351E0,-1.644497E0,6.3748837E-1,-3.387069E-1,5.2330065E-1,-1.2727231E-2,3.127999E-1,-1.9045843E0,-7.519965E-2,-2.1419506E0,-9.518099E-1,-1.3887917E-3,7.931996E-3,4.5763007E-3,-2.193984E-2,1.8269519E-3,-2.206937E-2,6.952097E-3,9.558005E-4,-1.6985485E-2,5.249394E-3,6.097826E-3,-3.6086228E-3,-4.4021644E-3,6.2382943E-3,-5.004119E-5,-2.0426285E-2,-2.9791861E-3,1.3511915E-3,-7.867787E-3,-2.3450222E-2,-1.1160044E-2,-2.728175E-3],"categories":[],"categories_nodes":[],"categories_segments":[],"categories_sizes":[],"default_left":[0,0,0,0,0,0,0,0,0,0,0,0,0,0,0,0,0,0,0,0,0,0,0,0,0,0,0,0,0,0,0,0,0,0,0,0,0,0,0,0,0,0,0,0,0,0,0,0,0,0,0,0,0,0,0,0,0,0,0,0,0],"id":12,"left_children":[1,3,5,7,9,11,13,-1,15,17,-1,19,21,23,-1,25,27,29,31,33,35,-1,37,-1,-1,39,-1,-1,41,43,45,47,49,-1,51,53,55,57,59,-1,-1,-1,-1,-1,-1,-1,-1,-1,-1,-1,-1,-1,-1,-1,-1,-1,-1,-1,-1,-1,-1],"loss_changes":[1.0295598E3,4.445981E1,6.553082E1,1.0382477E1,2.1161503E1,1.3159073E1,2.6495972E0,0E0,1.0451118E1,1.3159247E1,0E0,1.6584963E1,7.7278595E0,1.8491211E0,0E0,5.5416565E0,1.4221846E1,2.019622E1,4.3326488E0,1.0051357E1,5.2731285E0,0E0,5.0227814E0,0E0,0E0,3.7662582E0,0E0,0E0,7.627496E0,9.854794E0,7.343078E-2,9.229951E0,3.2270412E0,0E0,3.1035051E0,3.4561844E0,1.9706044E-1,7.198517E0,4.485469E-1,0E0,0E0,0E0,0E0,0E0,0E0,0E0,0E0,0E0,0E0,0E0,0E0,0E0,0E0,0E0,0E0,0E0,0E0,0E0,0E0,0E0,0E0],"parents":[2147483647,0,0,1,1,2,2,3,3,4,4,5,5,6,6,8,8,9,9,11,11,12,12,13,13,15,15,16,16,17,17,18,18,19,19,20,20,22,22,25,25,28,28,29,29,30,30,31,31,32,32,34,34,35,35,36,36,37,37,38,38],"right_children":[2,4,6,8,10,12,14,-1,16,18,-1,20,22,24,-1,26,28,30,32,34,36,-1,38,-1,-1,40,-1,-1,42,44,46,48,50,-1,52,54,56,58,60,-1,-1,-1,-1,-1,-1,-1,-1,-1,-1,-1,-1,-1,-1,-1,-1,-1,-1,-1,-1,-1,-1],"split_conditions":[1.0086726E-3,9.6343836E-4,1.1229606E-3,9.2309486E-4,1.32E2,1.5940678E1,9.5E1,1.0292822E-2,9.424347E0,4.2358157E-3,-2.2477482E-2,1.0613103E-3,3.3856244E-4,4.31567E-4,-4.8523704E-3,9.1E1,3.6417576E-4,9.109611E0,7.4E1,1.55125E1,1.18E2,4.2257993E-3,1.1016998E-3,-2.9407565E-2,-1.0101018E-2,2.0197004E-12,-9.699767E-3,7.3433695E-3,8.3E1,8E1,8.4E1,8.1E1,1.31E2,-1.2727231E-2,1.21E2,7.5E1,8.2E1,1.5279661E1,5.430355E-9,-1.3887917E-3,7.931996E-3,4.5763007E-3,-2.193984E-2,1.8269519E-3,-2.206937E-2,6.952097E-3,9.558005E-4,-1.6985485E-2,5.249394E-3,6.097826E-3,-3.6086228E-3,-4.4021644E-3,6.2382943E-3,-5.004119E-5,-2.0426285E-2,-2.9791861E-3,1.3511915E-3,-7.867787E-3,-2.3450222E-2,-1.1160044E-2,-2.728175E-3],"split_indices":[14,14,14,14,23,29,8,0,11,34,0,14,36,36,0,3,36,11,3,10,24,0,14,0,0,16,0,0,8,5,5,5,26,0,26,3,3,28,17,0,0,0,0,0,0,0,0,0,0,0,0,0,0,0,0,0,0,0,0,0,0],"split_type":[0,0,0,0,0,0,0,0,0,0,0,0,0,0,0,0,0,0,0,0,0,0,0,0,0,0,0,0,0,0,0,0,0,0,0,0,0,0,0,0,0,0,0,0,0,0,0,0,0,0,0,0,0,0,0,0,0,0,0,0,0],"sum_hessian":[6.05E2,4.55E2,1.5E2,3.94E2,6.1E1,7.2E1,7.8E1,2.38E2,1.56E2,5.8E1,3E0,3.1E1,4.1E1,7.7E1,1E0,1.47E2,9E0,1.4E1,4.4E1,1.6E1,1.5E1,1E0,4E1,7.5E1,2E0,1.46E2,1E0,5E0,4E0,8E0,6E0,6E0,3.8E1,5E0,1.1E1,1.3E1,2E0,3.3E1,7E0,4E0,1.42E2,1E0,3E0,2E0,6E0,5E0,1E0,2E0,4E0,3.5E1,3E0,3E0,8E0,1E0,1.2E1,1E0,1E0,5E0,2.8E1,5E0,2E0],"tree_param":{"num_deleted":"0","num_feature":"38","num_nodes":"61","size_leaf_vector":"1"}},{"base_weights":[-7.6829866E-2,7.15784E-1,-2.2825081E0,8.912411E-1,-2.4298735E-1,-1.5252728E0,-2.923989E0,1.0089636E0,6.3720906E-1,-1.1918739E-1,-2.2308897E-2,-1.5803338E0,3.0798719E-3,-2.9458523E-2,-4.828109E-3,1.0363699E-2,8.5046595E-1,-1.013718E-2,7.28138E-1,2.808751E-1,-9.010841E-1,-7.267818E-1,-1.7322022E0,8.9143676E-1,-0E0,-6.559605E-1,7.0518125E-3,-8.625192E-1,7.672308E-1,-9.862169E-1,3.9724398E-1,-4.1838944E-2,-2.003919E0,-1.4906459E0,1.2662259E-1,-1.9235437E0,-5.3487235E-1,9.019055E-3,1.8110699E-3,-3.950488E-3,3.851277E-3,3.3679332E-3,-2.006101E-2,2.2662778E-3,-1.5704066E-2,7.938734E-3,-9.651268E-3,-1.5022465E-2,2.30936E-3,5.3319256E-3,-4.9064658E-3,-8.210283E-3,6.326816E-3,1.8526582E-3,-2.5868732E-2,-1.8156908E-2,1.798119E-3,-4.0762112E-3,6.5421066E-3,-2.3789687E-2,-1.5961304E-2,5.5953325E-3,-1.0981224E-2],"categories":[],"categories_nodes":[],"categories_segments":[],"categories_sizes":[],"default_left":[0,0,0,0,0,0,0,0,0,0,0,0,0,0,0,0,0,0,0,0,0,0,0,0,0,0,0,0,0,0,0,0,0,0,0,0,0,0,0,0,0,0,0,0,0,0,0,0,0,0,0,0,0,0,0,0,0,0,0,0,0,0,0],"id":13,"left_children":[1,3,5,7,9,11,13,15,17,19,-1,21,-1,-1,-1,-1,23,25,27,29,31,33,35,37,39,41,-1,43,45,47,49,51,53,55,57,59,61,-1,-1,-1,-1,-1,-1,-1,-1,-1,-1,-1,-1,-1,-1,-1,-1,-1,-1,-1,-1,-1,-1,-1,-1,-1,-1],"loss_changes":[1.0647272E3,7.564537E1,7.330133E1,1.0526581E1,1.6726257E1,8.285477E0,2.824768E0,4.626465E-2,7.319275E0,2.1273216E1,0E0,8.087616E0,0E0,0E0,0E0,0E0,1.5508404E0,7.8491583E0,7.368004E0,6.9681244E0,2.1506508E1,8.799658E0,1.2929428E1,4.0683746E-2,6.087738E-1,1.2905787E1,0E0,2.803256E0,5.6414604E0,2.9864016E0,5.33558E0,7.8963933E0,1.3481369E1,4.290889E0,2.2643535E0,3.7082977E0,6.832535E0,0E0,0E0,0E0,0E0,0E0,0E0,0E0,0E0,0E0,0E0,0E0,0E0,0E0,0E0,0E0,0E0,0E0,0E0,0E0,0E0,0E0,0E0,0E0,0E0,0E0,0E0],"parents":[2147483647,0,0,1,1,2,2,3,3,4,4,5,5,6,6,7,7,8,8,9,9,11,11,16,16,17,17,18,18,19,19,20,20,21,21,22,22,23,23,24,24,25,25,27,27,28,28,29,29,30,30,31,31,32,32,33,33,34,34,35,35,36,36],"right_children":[2,4,6,8,10,12,14,16,18,20,-1,22,-1,-1,-1,-1,24,26,28,30,32,34,36,38,40,42,-1,44,46,48,50,52,54,56,58,60,62,-1,-1,-1,-1,-1,-1,-1,-1,-1,-1,-1,-1,-1,-1,-1,-1,-1,-1,-1,-1,-1,-1,-1,-1,-1,-1],"split_conditions":[1.0110443E-3,9.6343836E-4,1.1229606E-3,9.286122E-4,1.32E2,9.747178E0,9.4E1,9.196597E-4,9.174193E0,9.501426E0,-2.2308897E-2,4.1966612E-9,3.0798719E-3,-2.9458523E-2,-4.828109E-3,1.0363699E-2,8.8E1,1.24E2,9.2918525E-4,3.5414385E-9,6.0638876E-9,8.1E1,1.3E2,8.5E1,8.9E1,9.227318E0,7.0518125E-3,6.6E1,9.1E1,7.7E1,1.31E2,9.058674E0,6.6E1,7.9E1,7.7E1,9.405303E0,1.0306825E-3,9.019055E-3,1.8110699E-3,-3.950488E-3,3.851277E-3,3.3679332E-3,-2.006101E-2,2.2662778E-3,-1.5704066E-2,7.938734E-3,-9.651268E-3,-1.5022465E-2,2.30936E-3,5.3319256E-3,-4.9064658E-3,-8.210283E-3,6.326816E-3,1.8526582E-3,-2.5868732E-2,-1.8156908E-2,1.798119E-3,-4.0762112E-3,6.5421066E-3,-2.3789687E-2,-1.5961304E-2,5.5953325E-3,-1.0981224E-2],"split_indices":[14,14,14,14,23,12,4,14,12,31,0,17,0,0,0,0,3,23,14,17,17,8,23,6,3,30,0,3,3,3,26,11,6,6,3,12,14,0,0,0,0,0,0,0,0,0,0,0,0,0,0,0,0,0,0,0,0,0,0,0,0,0,0],"split_type":[0,0,0,0,0,0,0,0,0,0,0,0,0,0,0,0,0,0,0,0,0,0,0,0,0,0,0,0,0,0,0,0,0,0,0,0,0,0,0,0,0,0,0,0,0,0,0,0,0,0,0,0,0,0,0,0,0,0,0,0,0,0,0],"sum_hessian":[6.07E2,4.47E2,1.6E2,3.78E2,6.9E1,7.5E1,8.5E1,2.56E2,1.22E2,6.6E1,3E0,7.3E1,2E0,8.4E1,1E0,2.13E2,4.3E1,1.5E1,1.07E2,4.4E1,2.2E1,1.2E1,6.1E1,4.1E1,2E0,8E0,7E0,2E0,1.05E2,3E0,4.1E1,1.3E1,9E0,6E0,6E0,5.2E1,9E0,4E1,1E0,1E0,1E0,5E0,3E0,1E0,1E0,1.04E2,1E0,2E0,1E0,3.6E1,5E0,6E0,7E0,2E0,7E0,5E0,1E0,3E0,3E0,1.9E1,3.3E1,3E0,6E0],"tree_param":{"num_deleted":"0","num_feature":"38","num_nodes":"63","size_leaf_vector":"1"}},{"base_weights":[3.904961E-2,6.98358E-1,-2.3540847E0,8.755771E-1,-2.875705E-1,-1.5910494E0,-2.902541E0,1.0224811E-2,6.613636E-1,-1.6421422E-1,-2.4727693E-2,-1.1226467E0,-1.9626942E0,-2.9315255E0,-2.7086954E-3,7.156712E-1,-2.0922059E-1,-1.905426E-2,-6.2396444E-2,-1.8346167E0,-4.232576E-1,-1.1700753E0,-2.2652447E0,-2.9629694E-2,-1.1244349E-2,7.322547E-1,-9.603012E-3,7.540169E-3,-1.535909E0,-4.831664E-1,4.0676987E-1,-1.9403445E0,-1.8007726E-3,1.3059032E-1,-1.0059292E0,3.5572522E-3,-1.3682278E0,-1.4097275E0,-2.5638377E-2,-1.3803691E-3,7.5535527E-3,4.5137256E-3,-2.1705724E-2,9.983237E-4,-1.3904199E-2,5.827475E-3,-1.5725818E-2,-2.0283338E-2,-3.922364E-3,-6.1445436E-3,4.4552516E-3,-1.1274675E-2,-2.758093E-4,-1.6575003E-2,-1.0742502E-3,-1.5314347E-2,-2.288881E-3],"categories":[],"categories_nodes":[],"categories_segments":[],"categories_sizes":[],"default_left":[0,0,0,0,0,0,0,0,0,0,0,0,0,0,0,0,0,0,0,0,0,0,0,0,0,0,0,0,0,0,0,0,0,0,0,0,0,0,0,0,0,0,0,0,0,0,0,0,0,0,0,0,0,0,0,0,0],"id":14,"left_children":[1,3,5,7,9,11,13,-1,15,17,-1,19,21,23,-1,25,27,-1,29,31,33,35,37,-1,-1,39,-1,-1,41,43,45,47,-1,49,51,-1,53,55,-1,-1,-1,-1,-1,-1,-1,-1,-1,-1,-1,-1,-1,-1,-1,-1,-1,-1,-1],"loss_changes":[1.0081235E3,8.784802E1,5.2684387E1,1.2529633E1,2.0086205E1,7.932831E0,4.911621E0,0E0,8.521545E0,1.2803514E1,0E0,1.3438076E1,4.679802E0,6.9177246E-1,0E0,5.2940903E0,1.5293368E1,0E0,1.4220364E1,1.887577E0,5.3822827E0,3.9137182E0,1.6082535E0,0E0,0E0,3.4832077E0,0E0,0E0,7.4579325E0,2.0367123E1,1.2660372E1,7.331772E-1,0E0,2.3686268E0,8.0465126E-1,0E0,3.2926064E0,6.231756E-1,0E0,0E0,0E0,0E0,0E0,0E0,0E0,0E0,0E0,0E0,0E0,0E0,0E0,0E0,0E0,0E0,0E0,0E0,0E0],"parents":[2147483647,0,0,1,1,2,2,3,3,4,4,5,5,6,6,8,8,9,9,11,11,12,12,13,13,15,15,16,16,18,18,19,19,20,20,21,21,22,22,25,25,28,28,29,29,30,30,31,31,33,33,34,34,36,36,37,37],"right_children":[2,4,6,8,10,12,14,-1,16,18,-1,20,22,24,-1,26,28,-1,30,32,34,36,38,-1,-1,40,-1,-1,42,44,46,48,-1,50,52,-1,54,56,-1,-1,-1,-1,-1,-1,-1,-1,-1,-1,-1,-1,-1,-1,-1,-1,-1,-1,-1],"split_conditions":[1.0287177E-3,9.654597E-4,1.1229606E-3,9.2309486E-4,1.37E2,9.063813E0,9.424347E0,1.0224811E-2,9.413155E0,7E1,-2.4727693E-2,9.086928E0,7.2E1,1.6247864E1,-2.7086954E-3,9.2E1,3.6417576E-4,-1.905426E-2,9.119743E0,1.2758062E-8,1.0613103E-3,1.57E1,6.443893E-12,-2.9629694E-2,-1.1244349E-2,2.0197004E-12,-9.603012E-3,7.540169E-3,9.469697E-4,9.020708E0,8.6E1,9E1,-1.8007726E-3,9.112995E0,8.4E1,3.5572522E-3,9.262041E0,8.1E1,-2.5638377E-2,-1.3803691E-3,7.5535527E-3,4.5137256E-3,-2.1705724E-2,9.983237E-4,-1.3904199E-2,5.827475E-3,-1.5725818E-2,-2.0283338E-2,-3.922364E-3,-6.1445436E-3,4.4552516E-3,-1.1274675E-2,-2.758093E-4,-1.6575003E-2,-1.0742502E-3,-1.5314347E-2,-2.288881E-3],"split_indices":[14,14,14,14,26,11,11,0,11,5,0,30,6,28,0,3,36,0,11,17,14,9,16,0,0,16,0,0,13,11,6,3,0,30,3,0,11,5,0,0,0,0,0,0,0,0,0,0,0,0,0,0,0,0,0,0,0],"split_type":[0,0,0,0,0,0,0,0,0,0,0,0,0,0,0,0,0,0,0,0,0,0,0,0,0,0,0,0,0,0,0,0,0,0,0,0,0,0,0,0,0,0,0,0,0,0,0,0,0,0,0,0,0,0,0,0,0],"sum_hessian":[6.37E2,5E2,1.37E2,4.24E2,7.6E1,5.9E1,7.8E1,2.49E2,1.75E2,7.3E1,3E0,2.8E1,3.1E1,7.7E1,1E0,1.65E2,1E1,3E0,7E1,1.3E1,1.5E1,1E1,2.1E1,7.5E1,2E0,1.64E2,1E0,6E0,4E0,3.7E1,3.3E1,1.2E1,1E0,8E0,7E0,1E0,9E0,7E0,1.4E1,4E0,1.6E2,1E0,3E0,2.3E1,1.4E1,3.1E1,2E0,1.1E1,1E0,2E0,6E0,6E0,1E0,7E0,2E0,6E0,1E0],"tree_param":{"num_deleted":"0","num_feature":"38","num_nodes":"57","size_leaf_vector":"1"}},{"base_weights":[-3.85341E-2,7.3231196E-1,-2.1215303E0,8.605117E-1,-1.7377761E-1,-1.4203024E0,-2.7969263E-2,9.841788E-1,5.905684E-1,1.4834076E-1,-1.0348597E0,-1.5088773E0,-0E0,7.93161E-1,1.0175235E-2,6.7888564E-1,-3.2612428E-1,3.114551E-1,-2.0970022E-2,1.8878758E-1,-1.7979268E0,-1.6869565E0,-6.7374563E-1,-5.845822E-3,4.5670005E-3,8.315703E-1,-1.2297308E-3,7.1919787E-1,-6.34891E-1,7.20705E-3,-1.5097377E0,-9.725807E-1,4.4105217E-1,-6.736817E-3,4.614794E-1,-2.433162E-2,4.620097E-3,4.298293E-3,-1.7276736E0,2.5033462E-1,-1.2632272E0,8.561574E-3,-6.2837795E-4,3.4500568E-3,-3.968503E-3,-7.6500094E-3,7.5282417E-3,-1.1223825E-2,3.6379187E-3,4.491157E-3,-2.0113315E-2,-1.4829623E-2,2.292821E-3,5.6115715E-3,-1.56721E-3,5.9135864E-4,5.101209E-3,-1.0899423E-2,-1.965216E-2,5.516866E-3,-7.288888E-3,-2.0176446E-2,-8.528073E-4],"categories":[],"categories_nodes":[],"categories_segments":[],"categories_sizes":[],"default_left":[0,0,0,0,0,0,0,0,0,0,0,0,0,0,0,0,0,0,0,0,0,0,0,0,0,0,0,0,0,0,0,0,0,0,0,0,0,0,0,0,0,0,0,0,0,0,0,0,0,0,0,0,0,0,0,0,0,0,0,0,0,0,0],"id":15,"left_children":[1,3,5,7,9,11,-1,13,15,17,19,21,23,25,-1,27,29,31,-1,33,35,37,39,-1,-1,41,43,45,47,-1,49,51,53,-1,55,-1,-1,-1,57,59,61,-1,-1,-1,-1,-1,-1,-1,-1,-1,-1,-1,-1,-1,-1,-1,-1,-1,-1,-1,-1,-1,-1],"loss_changes":[1.01647565E3,5.388434E1,7.659253E1,1.2781433E1,1.6329645E1,1.0929291E1,0E0,7.698364E-1,1.0781441E1,1.6223217E1,1.5439938E1,1.067363E1,1.8595089E0,1.4876099E0,0E0,6.767437E0,1.6035475E1,7.1985035E0,0E0,1.9359882E0,1.5677174E1,6.560898E0,9.133171E0,0E0,0E0,1.1007328E0,5.5303365E-1,6.364029E0,2.4315705E0,0E0,6.954835E0,2.919019E0,2.8566194E0,0E0,3.0331492E-2,0E0,0E0,0E0,7.399246E0,2.4500349E0,8.504274E0,0E0,0E0,0E0,0E0,0E0,0E0,0E0,0E0,0E0,0E0,0E0,0E0,0E0,0E0,0E0,0E0,0E0,0E0,0E0,0E0,0E0,0E0],"parents":[2147483647,0,0,1,1,2,2,3,3,4,4,5,5,7,7,8,8,9,9,10,10,11,11,12,12,13,13,15,15,16,16,17,17,19,19,20,20,21,21,22,22,25,25,26,26,27,27,28,28,30,30,31,31,32,32,34,34,38,38,39,39,40,40],"right_children":[2,4,6,8,10,12,-1,14,16,18,20,22,24,26,-1,28,30,32,-1,34,36,38,40,-1,-1,42,44,46,48,-1,50,52,54,-1,56,-1,-1,-1,58,60,62,-1,-1,-1,-1,-1,-1,-1,-1,-1,-1,-1,-1,-1,-1,-1,-1,-1,-1,-1,-1,-1,-1],"split_conditions":[1.0086726E-3,9.654597E-4,1.1229606E-3,9.286122E-4,9.552778E0,9.751138E0,-2.7969263E-2,6.140443E-12,9.424347E0,1.32E2,4.9095417E-9,1.29E2,9.572933E0,6.0611516E-12,1.0175235E-2,1.35E2,3.6417576E-4,3.5414385E-9,-2.0970022E-2,7.1E1,8.6E1,2.8624156E-9,9.030619E0,-5.845822E-3,4.5670005E-3,1.6116667E1,7.3E1,2.0197004E-12,7.4E1,7.20705E-3,9.469697E-4,7.7E1,1.3E2,-6.736817E-3,9.669575E-4,-2.433162E-2,4.620097E-3,4.298293E-3,3.7453073E-4,8E1,9.241662E0,8.561574E-3,-6.2837795E-4,3.4500568E-3,-3.968503E-3,-7.6500094E-3,7.5282417E-3,-1.1223825E-2,3.6379187E-3,4.491157E-3,-2.0113315E-2,-1.4829623E-2,2.292821E-3,5.6115715E-3,-1.56721E-3,5.9135864E-4,5.101209E-3,-1.0899423E-2,-1.965216E-2,5.516866E-3,-7.288888E-3,-2.0176446E-2,-8.528073E-4],"split_indices":[14,14,14,14,31,31,0,16,11,23,17,23,12,16,0,22,36,17,0,8,8,17,11,0,0,9,3,16,6,0,13,3,26,0,14,0,0,0,36,3,11,0,0,0,0,0,0,0,0,0,0,0,0,0,0,0,0,0,0,0,0,0,0],"split_type":[0,0,0,0,0,0,0,0,0,0,0,0,0,0,0,0,0,0,0,0,0,0,0,0,0,0,0,0,0,0,0,0,0,0,0,0,0,0,0,0,0,0,0,0,0,0,0,0,0,0,0,0,0,0,0,0,0,0,0,0,0,0,0],"sum_hessian":[6.31E2,4.61E2,1.7E2,4.04E2,5.7E1,8.5E1,8.5E1,2.75E2,1.29E2,4.2E1,1.5E1,8E1,5E0,4.5E1,2.3E2,1.18E2,1.1E1,4E1,2E0,6E0,9E0,6.5E1,1.5E1,2E0,3E0,4.3E1,2E0,1.15E2,3E0,6E0,5E0,3E0,3.7E1,1E0,5E0,7E0,2E0,1E0,6.4E1,6E0,9E0,4.2E1,1E0,1E0,1E0,2E0,1.13E2,2E0,1E0,1E0,4E0,2E0,1E0,3.1E1,6E0,1E0,4E0,1.9E1,4.5E1,5E0,1E0,5E0,4E0],"tree_param":{"num_deleted":"0","num_feature":"38","num_nodes":"63","size_leaf_vector":"1"}},{"base_weights":[-3.8600065E-2,6.8636054E-1,-2.2653267E0,8.579289E-1,-2.7117306E-1,-1.531701E0,-2.8199804E0,9.316191E-1,4.852064E-1,3.0835742E-1,-7.0864457E-1,-1.719475E0,-3.7621307E-1,-2.840892E0,-4.607901E-3,9.403695E-1,-9.498877E-3,-2.0043444E-2,5.9092945E-1,-1.5216739E-2,4.844153E-1,-1.2309705E-1,-1.4057232E0,-2.737159E-1,-1.8178263E0,5.499712E-3,-8.047786E-1,-2.8732594E-2,-9.543031E-3,1.0126995E-2,8.277124E-1,6.636306E-1,-6.95021E-1,-7.8000796E-1,6.061601E-1,1.1767567E-1,-1.8810647E-2,-1.7677232E0,3.6870737E-3,-8.112959E-3,3.2176934E-3,-6.8562734E-1,-1.9665715E0,1.8095967E-1,-1.4524134E-2,8.534652E-3,2.1323706E-3,-5.35046E-3,7.1254023E-3,3.0092304E-3,-1.1606433E-2,-1.5904613E-2,3.7044925E-3,-1.078773E-2,7.1222326E-3,2.8530871E-3,-6.830003E-3,7.045329E-4,-2.0424949E-2,3.9727194E-3,-1.12947235E-2,-2.0785255E-2,-8.198059E-3,-0E0,2.532477E-3],"categories":[],"categories_nodes":[],"categories_segments":[],"categories_sizes":[],"default_left":[0,0,0,0,0,0,0,0,0,0,0,0,0,0,0,0,0,0,0,0,0,0,0,0,0,0,0,0,0,0,0,0,0,0,0,0,0,0,0,0,0,0,0,0,0,0,0,0,0,0,0,0,0,0,0,0,0,0,0,0,0,0,0,0,0],"id":16,"left_children":[1,3,5,7,9,11,13,15,17,19,21,23,25,27,-1,29,-1,-1,31,-1,33,35,37,39,41,-1,43,-1,-1,-1,45,47,49,51,53,55,-1,57,-1,-1,-1,59,61,63,-1,-1,-1,-1,-1,-1,-1,-1,-1,-1,-1,-1,-1,-1,-1,-1,-1,-1,-1,-1,-1],"loss_changes":[1.0187149E3,7.848976E1,5.8316223E1,1.0502563E1,1.8766094E1,1.4114517E1,2.652893E0,6.4241943E0,1.920409E1,1.0943523E1,1.681733E1,7.682617E0,4.8343225E0,2.126831E0,0E0,1.7074585E0,0E0,0E0,6.7219315E0,0E0,5.0735335E0,1.055619E1,1.2996212E1,1.9106077E0,7.6489563E0,0E0,5.4971614E0,0E0,0E0,0E0,1.8792877E0,4.1511097E0,2.2901711E0,3.5083613E0,5.7355347E0,3.1079316E0,0E0,8.422371E0,0E0,0E0,0E0,4.367043E0,4.16864E0,6.141758E-2,0E0,0E0,0E0,0E0,0E0,0E0,0E0,0E0,0E0,0E0,0E0,0E0,0E0,0E0,0E0,0E0,0E0,0E0,0E0,0E0,0E0],"parents":[2147483647,0,0,1,1,2,2,3,3,4,4,5,5,6,6,7,7,8,8,9,9,10,10,11,11,12,12,13,13,15,15,18,18,20,20,21,21,22,22,23,23,24,24,26,26,30,30,31,31,32,32,33,33,34,34,35,35,37,37,41,41,42,42,43,43],"right_children":[2,4,6,8,10,12,14,16,18,20,22,24,26,28,-1,30,-1,-1,32,-1,34,36,38,40,42,-1,44,-1,-1,-1,46,48,50,52,54,56,-1,58,-1,-1,-1,60,62,64,-1,-1,-1,-1,-1,-1,-1,-1,-1,-1,-1,-1,-1,-1,-1,-1,-1,-1,-1,-1,-1],"split_conditions":[1.0166735E-3,9.6343836E-4,1.1229606E-3,9.450986E-4,3.723075E-4,1.3E2,9.4E1,1.48E2,3.8401303E-3,1.1E2,9.357525E0,7.3E1,1.0306825E-3,4.31567E-4,-4.607901E-3,9.1618486E-4,-9.498877E-3,-2.0043444E-2,9.4E1,-1.5216739E-2,1.12E2,1.32E2,1.6275E1,7.1E1,4.1966612E-9,5.499712E-3,7.3E1,-2.8732594E-2,-9.543031E-3,1.0126995E-2,9.498751E0,9.4575115E-4,8.1E1,8.3E1,2.0419632E-12,1.27E2,-1.8810647E-2,1.04E2,3.6870737E-3,-8.112959E-3,3.2176934E-3,1.0549395E-3,1.104308E-3,7E1,-1.4524134E-2,8.534652E-3,2.1323706E-3,-5.35046E-3,7.1254023E-3,3.0092304E-3,-1.1606433E-2,-1.5904613E-2,3.7044925E-3,-1.078773E-2,7.1222326E-3,2.8530871E-3,-6.830003E-3,7.045329E-4,-2.0424949E-2,3.9727194E-3,-1.12947235E-2,-2.0785255E-2,-8.198059E-3,-0E0,2.532477E-3],"split_indices":[14,14,14,14,36,23,4,22,15,24,12,4,14,36,0,14,0,0,7,0,23,23,10,4,17,0,5,0,0,0,30,14,3,3,16,22,0,25,0,0,0,14,14,7,0,0,0,0,0,0,0,0,0,0,0,0,0,0,0,0,0,0,0,0,0],"split_type":[0,0,0,0,0,0,0,0,0,0,0,0,0,0,0,0,0,0,0,0,0,0,0,0,0,0,0,0,0,0,0,0,0,0,0,0,0,0,0,0,0,0,0,0,0,0,0,0,0,0,0,0,0,0,0,0,0,0,0,0,0,0,0,0,0],"sum_hessian":[6.29E2,4.75E2,1.54E2,4.03E2,7.2E1,6.8E1,8.6E1,3.35E2,6.8E1,3.1E1,4.1E1,5.8E1,1E1,8.5E1,1E0,3.34E2,1E0,2E0,6.6E1,2E0,2.9E1,2.3E1,1.8E1,4E0,5.4E1,3E0,7E0,8.3E1,2E0,1.98E2,1.36E2,6.3E1,3E0,2E0,2.7E1,2.1E1,2E0,1.5E1,3E0,2E0,2E0,7E0,4.7E1,3E0,4E0,1.3E2,6E0,2E0,6.1E1,1E0,2E0,1E0,1E0,1E0,2.6E1,1.8E1,3E0,2E0,1.3E1,2E0,5E0,4.2E1,5E0,1E0,2E0],"tree_param":{"num_deleted":"0","num_feature":"38","num_nodes":"65","size_leaf_vector":"1"}},{"base_weights":[-2.8983675E-2,7.34517E-1,-2.257895E0,9.354468E-1,2.378756E-1,-1.5622174E0,-2.7805085E0,-9.451383E-3,9.4428587E-1,2.9228073E-1,-1.6055641E0,-3.1144893E-1,-1.671343E0,-2.8003235E0,-4.5848624E-3,1.0080462E-2,8.4938383E-1,3.6282507E-1,-1.2447121E0,-2.3201128E-2,2.1904106E-3,4.4890926E-3,-1.0189449E0,-1.8199996E0,-5.330352E-1,-7.3019736E-3,-2.8144134E-2,8.627026E-1,-4.509658E-3,6.130127E-1,9.337735E-2,3.8121997E-3,-2.177983E-2,-1.2163701E-2,-1.6333456E-3,-1.9089758E0,-4.928509E-1,-1.3815596E-2,1.0482019E-1,1.354471E-3,8.825069E-3,-2.256192E-3,7.0230286E-3,-4.904473E-3,3.7865504E-3,-1.5733585E-2,-2.3790767E-2,-7.92548E-3,3.0296866E-3,4.4959984E-3,-3.5649273E-3],"categories":[],"categories_nodes":[],"categories_segments":[],"categories_sizes":[],"default_left":[0,0,0,0,0,0,0,0,0,0,0,0,0,0,0,0,0,0,0,0,0,0,0,0,0,0,0,0,0,0,0,0,0,0,0,0,0,0,0,0,0,0,0,0,0,0,0,0,0,0,0],"id":17,"left_children":[1,3,5,7,9,11,13,-1,15,17,19,21,23,25,-1,-1,27,29,31,-1,-1,-1,33,35,37,-1,-1,39,-1,41,43,-1,-1,-1,-1,45,47,-1,49,-1,-1,-1,-1,-1,-1,-1,-1,-1,-1,-1,-1],"loss_changes":[1.0671221E3,4.6262115E1,5.339325E1,6.411072E0,1.3977739E1,8.972031E0,2.531189E0,0E0,9.60907E-1,1.47841015E1,5.933386E0,4.2800694E0,9.793671E0,1.864624E-1,0E0,0E0,2.8548965E0,8.500919E0,1.0114578E1,0E0,0E0,0E0,3.3903074E-1,5.54982E0,5.143612E0,0E0,0E0,1.7806549E0,0E0,5.148304E0,1.0667318E1,0E0,0E0,0E0,0E0,4.223633E0,1.4815992E0,0E0,1.1238976E0,0E0,0E0,0E0,0E0,0E0,0E0,0E0,0E0,0E0,0E0,0E0,0E0],"parents":[2147483647,0,0,1,1,2,2,3,3,4,4,5,5,6,6,8,8,9,9,10,10,11,11,12,12,13,13,16,16,17,17,18,18,22,22,23,23,24,24,27,27,29,29,30,30,35,35,36,36,38,38],"right_children":[2,4,6,8,10,12,14,-1,16,18,20,22,24,26,-1,-1,28,30,32,-1,-1,-1,34,36,38,-1,-1,40,-1,42,44,-1,-1,-1,-1,46,48,-1,50,-1,-1,-1,-1,-1,-1,-1,-1,-1,-1,-1,-1],"split_conditions":[1.0110443E-3,9.450986E-4,1.1229606E-3,2.6562692E-9,1.37E2,3.5622902E-4,9.6E1,-9.451383E-3,9.1618486E-4,1.32E2,8.3E1,1.0497146E-3,1.31E2,1.05E2,-4.5848624E-3,1.0080462E-2,5.4489652E-11,3.723075E-4,9.629657E-4,-2.3201128E-2,2.1904106E-3,4.4890926E-3,7.6E1,9.469698E-4,8E1,-7.3019736E-3,-2.8144134E-2,3.4580542E-12,-4.509658E-3,1.1E2,4.3478403E-3,3.8121997E-3,-2.177983E-2,-1.2163701E-2,-1.6333456E-3,1.22E2,8.5E1,-1.3815596E-2,8.8E1,1.354471E-3,8.825069E-3,-2.256192E-3,7.0230286E-3,-4.904473E-3,3.7865504E-3,-1.5733585E-2,-2.3790767E-2,-7.92548E-3,3.0296866E-3,4.4959984E-3,-3.5649273E-3],"split_indices":[14,14,14,17,26,36,4,0,14,23,4,14,23,24,0,0,16,36,14,0,0,0,3,32,8,0,0,16,0,22,15,0,0,0,0,23,4,0,8,0,0,0,0,0,0,0,0,0,0,0,0],"split_type":[0,0,0,0,0,0,0,0,0,0,0,0,0,0,0,0,0,0,0,0,0,0,0,0,0,0,0,0,0,0,0,0,0,0,0,0,0,0,0,0,0,0,0,0,0,0,0,0,0,0,0],"sum_hessian":[6.25E2,4.66E2,1.59E2,3.31E2,1.35E2,7E1,8.9E1,1E0,3.3E2,1.32E2,3E0,6E0,6.4E1,8.8E1,1E0,1.91E2,1.39E2,1.27E2,5E0,2E0,1E0,3E0,3E0,5.6E1,8E0,1E0,8.7E1,1.38E2,1E0,6.5E1,6.2E1,2E0,3E0,2E0,1E0,5.2E1,4E0,3E0,5E0,4E0,1.34E2,6E0,5.9E1,2E1,4.2E1,3.3E1,1.9E1,3E0,1E0,3E0,2E0],"tree_param":{"num_deleted":"0","num_feature":"38","num_nodes":"51","size_leaf_vector":"1"}},{"base_weights":[1.29312575E-2,6.9492453E-1,-2.1506803E0,8.3695567E-1,-2.4786632E-1,-1.3829261E0,-2.7863853E0,9.5865065E-1,5.8317345E-1,-2.161648E-2,-1.144831E-1,1.4324087E-1,-1.4791065E0,-2.8085602E-2,-4.5619383E-3,9.882818E-3,8.0176723E-1,-1.6314618E-2,6.121889E-1,2.4564101E-1,-9.097847E-1,-5.3972392E-3,4.7391304E-3,-6.537063E-1,-1.7500881E0,-6.746812E-4,8.2292444E-1,6.367252E-1,-1.3001072E-2,-1.0249095E0,3.722195E-1,4.0736493E-1,-2.1459558E0,1.6883327E-1,-1.3386214E0,-1.6048402E-1,-1.8855976E0,8.554664E-3,4.304622E-3,-8.585667E-3,6.66418E-3,-1.666843E-2,4.004454E-3,5.1437626E-3,-4.7870534E-3,6.098829E-3,-6.5764873E-3,1.8010898E-3,-2.7624855E-2,4.272574E-3,-8.992799E-3,-1.4837638E-2,-0E0,-1.7497446E-2,6.492673E-3,-7.1865013E-3,-2.044137E-2],"categories":[],"categories_nodes":[],"categories_segments":[],"categories_sizes":[],"default_left":[0,0,0,0,0,0,0,0,0,0,0,0,0,0,0,0,0,0,0,0,0,0,0,0,0,0,0,0,0,0,0,0,0,0,0,0,0,0,0,0,0,0,0,0,0,0,0,0,0,0,0,0,0,0,0,0,0],"id":18,"left_children":[1,3,5,7,9,11,13,15,17,-1,19,21,23,-1,-1,-1,25,-1,27,29,31,-1,-1,33,35,-1,37,39,-1,41,43,45,47,49,51,53,55,-1,-1,-1,-1,-1,-1,-1,-1,-1,-1,-1,-1,-1,-1,-1,-1,-1,-1,-1,-1],"loss_changes":[9.235792E2,6.400546E1,6.8939514E1,1.2072723E1,1.5606696E1,1.062056E1,2.5776978E0,3.2095337E-1,9.70026E0,0E0,1.747433E1,1.3783885E0,1.337767E1,0E0,0E0,0E0,1.0505981E0,0E0,7.1426888E0,7.070846E0,3.1984268E1,0E0,0E0,1.0483639E1,1.0047699E1,0E0,1.2896729E-1,6.5468826E0,0E0,4.454051E0,4.9674263E0,2.553157E0,1.5096668E1,2.8212576E0,1.8949223E0,7.680629E0,6.5800323E0,0E0,0E0,0E0,0E0,0E0,0E0,0E0,0E0,0E0,0E0,0E0,0E0,0E0,0E0,0E0,0E0,0E0,0E0,0E0,0E0],"parents":[2147483647,0,0,1,1,2,2,3,3,4,4,5,5,6,6,7,7,8,8,10,10,11,11,12,12,16,16,18,18,19,19,20,20,23,23,24,24,26,26,27,27,29,29,30,30,31,31,32,32,33,33,34,34,35,35,36,36],"right_children":[2,4,6,8,10,12,14,16,18,-1,20,22,24,-1,-1,-1,26,-1,28,30,32,-1,-1,34,36,-1,38,40,-1,42,44,46,48,50,52,54,56,-1,-1,-1,-1,-1,-1,-1,-1,-1,-1,-1,-1,-1,-1,-1,-1,-1,-1,-1,-1],"split_conditions":[1.0086726E-3,9.654597E-4,1.1229606E-3,9.286122E-4,9.147344E0,7.3E1,9.6E1,9.196597E-4,2.0197004E-12,-2.161648E-2,9.511908E0,7.9E1,9.348178E0,-2.8085602E-2,-4.5619383E-3,9.882818E-3,7E1,-1.6314618E-2,9.3E1,1.1E2,5.4664677E-9,-5.3972392E-3,4.7391304E-3,4.4658263E-3,3.851415E-9,-6.746812E-4,8.8E1,9.2918525E-4,-1.3001072E-2,7.4E1,1.31E2,9.2E1,6.6E1,8.1E1,7.9E1,7.8E1,1.508547E1,8.554664E-3,4.304622E-3,-8.585667E-3,6.66418E-3,-1.666843E-2,4.004454E-3,5.1437626E-3,-4.7870534E-3,6.098829E-3,-6.5764873E-3,1.8010898E-3,-2.7624855E-2,4.272574E-3,-8.992799E-3,-1.4837638E-2,-0E0,-1.7497446E-2,6.492673E-3,-7.1865013E-3,-2.044137E-2],"split_indices":[33,33,33,33,12,4,4,33,35,0,31,3,31,0,0,0,4,0,6,22,17,0,0,15,17,0,3,33,0,3,26,7,6,3,6,3,28,0,0,0,0,0,0,0,0,0,0,0,0,0,0,0,0,0,0,0,0],"split_type":[0,0,0,0,0,0,0,0,0,0,0,0,0,0,0,0,0,0,0,0,0,0,0,0,0,0,0,0,0,0,0,0,0,0,0,0,0,0,0,0,0,0,0,0,0,0,0,0,0,0,0,0,0,0,0,0,0],"sum_hessian":[6.24E2,4.75E2,1.49E2,4.13E2,6.2E1,6.9E1,8E1,2.77E2,1.36E2,3E0,5.9E1,4E0,6.5E1,7.9E1,1E0,2.28E2,4.9E1,1E0,1.35E2,4.1E1,1.8E1,1E0,3E0,1.7E1,4.8E1,1E0,4.8E1,1.34E2,1E0,3E0,3.8E1,9E0,9E0,8E0,9E0,4E0,4.4E1,4.3E1,5E0,2E0,1.32E2,2E0,1E0,3.3E1,5E0,8E0,1E0,2E0,7E0,7E0,1E0,8E0,1E0,1E0,3E0,6E0,3.8E1],"tree_param":{"num_deleted":"0","num_feature":"38","num_nodes":"57","size_leaf_vector":"1"}},{"base_weights":[3.9399188E-2,7.104615E-1,-2.045607E0,8.2177824E-1,-1.8510015E-1,-1.2497233E0,-2.7485173E0,9.053131E-1,4.5876512E-1,-2.882241E-2,-2.1454358E-2,-5.7323855E-1,-1.5128608E0,-2.775386E0,-2.2264393E-3,-9.437447E-3,9.1350794E-1,-1.9779408E-2,5.4353774E-1,-1.2709014E0,2.2362153E-1,2.1466061E-1,-1.0144287E0,-1.5946761E0,3.7622605E-3,-2.7972078E-2,-4.539129E-3,9.869022E-3,7.96796E-1,6.0189885E-1,-4.5560363E-1,-2.23235E-2,4.6399698E-1,5.055057E-1,-4.797565E-1,4.9591223E-3,-4.7981346E-1,-1.5451742E0,-1.7283769E-1,-3.710089E-1,-1.6599821E0,8.095682E-3,-4.520432E-3,6.6776024E-3,-2.8306444E-3,-1.1569761E-2,3.643034E-3,6.445546E-4,5.4235896E-3,6.2815365E-3,2.702391E-3,-2.0427847E-2,4.3078763E-3,-6.7810323E-3,-0E0,-4.626387E-3,-1.7740931E-2,-7.218415E-3,3.9437553E-3,1.5372343E-3,-6.3049416E-3,-0E0,-1.6938914E-2],"categories":[],"categories_nodes":[],"categories_segments":[],"categories_sizes":[],"default_left":[0,0,0,0,0,0,0,0,0,0,0,0,0,0,0,0,0,0,0,0,0,0,0,0,0,0,0,0,0,0,0,0,0,0,0,0,0,0,0,0,0,0,0,0,0,0,0,0,0,0,0,0,0,0,0,0,0,0,0,0,0,0,0],"id":19,"left_children":[1,3,5,7,9,11,13,15,17,19,-1,21,23,25,-1,-1,27,-1,29,31,33,35,37,39,-1,-1,-1,-1,41,43,45,-1,47,49,51,-1,53,55,57,59,61,-1,-1,-1,-1,-1,-1,-1,-1,-1,-1,-1,-1,-1,-1,-1,-1,-1,-1,-1,-1,-1,-1],"loss_changes":[9.079813E2,4.9164078E1,8.455603E1,1.2699951E1,1.6570362E1,1.2452805E1,4.71521E0,6.2232056E0,1.8283178E1,1.6693808E1,0E0,8.292845E0,9.067841E0,2.559204E0,0E0,0E0,2.059082E0,0E0,5.070364E0,1.6224781E1,8.969024E0,1.9974531E0,6.2611933E0,3.336502E0,0E0,0E0,0E0,0E0,2.6666794E0,4.7737064E0,3.3760586E0,0E0,2.959609E-2,6.637678E-1,1.9542885E1,0E0,2.2898525E-1,1.1858788E0,2.4972389E0,6.8924004E-1,2.7033691E0,0E0,0E0,0E0,0E0,0E0,0E0,0E0,0E0,0E0,0E0,0E0,0E0,0E0,0E0,0E0,0E0,0E0,0E0,0E0,0E0,0E0,0E0],"parents":[2147483647,0,0,1,1,2,2,3,3,4,4,5,5,6,6,7,7,8,8,9,9,11,11,12,12,13,13,16,16,18,18,19,19,20,20,21,21,22,22,23,23,28,28,29,29,30,30,32,32,33,33,34,34,36,36,37,37,38,38,39,39,40,40],"right_children":[2,4,6,8,10,12,14,16,18,20,-1,22,24,26,-1,-1,28,-1,30,32,34,36,38,40,-1,-1,-1,-1,42,44,46,-1,48,50,52,-1,54,56,58,60,62,-1,-1,-1,-1,-1,-1,-1,-1,-1,-1,-1,-1,-1,-1,-1,-1,-1,-1,-1,-1,-1,-1],"split_conditions":[1.0061054E-3,9.654597E-4,1.1229606E-3,9.450986E-4,1.32E2,4.476509E-3,1.38E2,1.4829166E1,3.8401303E-3,4.208312E-3,-2.1454358E-2,9.328085E0,3.7E2,9.6E1,-2.2264393E-3,-9.437447E-3,9.152793E-4,-1.9779408E-2,9.4E1,8.2E1,4.8299544E-3,1.5722071E1,9.449514E0,7.4E1,3.7622605E-3,-2.7972078E-2,-4.539129E-3,9.869022E-3,5.4489652E-11,9.431768E0,8E1,-2.23235E-2,8.3E1,1.5379167E1,8.2E1,4.9591223E-3,8.6E1,4.766469E-9,8E1,8.5E1,8.954863E0,8.095682E-3,-4.520432E-3,6.6776024E-3,-2.8306444E-3,-1.1569761E-2,3.643034E-3,6.445546E-4,5.4235896E-3,6.2815365E-3,2.702391E-3,-2.0427847E-2,4.3078763E-3,-6.7810323E-3,-0E0,-4.626387E-3,-1.7740931E-2,-7.218415E-3,3.9437553E-3,1.5372343E-3,-6.3049416E-3,-0E0,-1.6938914E-2],"split_indices":[14,14,14,14,23,34,27,10,34,34,0,31,19,4,0,0,14,0,7,4,34,28,12,4,0,0,0,0,16,11,4,0,4,9,8,0,4,17,8,7,12,0,0,0,0,0,0,0,0,0,0,0,0,0,0,0,0,0,0,0,0,0,0],"split_type":[0,0,0,0,0,0,0,0,0,0,0,0,0,0,0,0,0,0,0,0,0,0,0,0,0,0,0,0,0,0,0,0,0,0,0,0,0,0,0,0,0,0,0,0,0,0,0,0,0,0,0,0,0,0,0,0,0,0,0,0,0,0,0],"sum_hessian":[6.47E2,4.9E2,1.57E2,4.36E2,5.4E1,7.5E1,8.2E1,3.53E2,8.3E1,5.1E1,3E0,2.2E1,5.3E1,8.1E1,1E0,1E0,3.52E2,2E0,8.1E1,8E0,4.3E1,8E0,1.4E1,5.1E1,2E0,8E1,1E0,2.11E2,1.41E2,7.7E1,4E0,5E0,3E0,3.1E1,1.2E1,6E0,2E0,8E0,6E0,3E0,4.8E1,1.4E2,1E0,7.2E1,5E0,2E0,2E0,1E0,2E0,1.9E1,1.2E1,4E0,8E0,1E0,1E0,2E0,6E0,3E0,3E0,1E0,2E0,1E0,4.7E1],"tree_param":{"num_deleted":"0","num_feature":"38","num_nodes":"63","size_leaf_vector":"1"}},{"base_weights":[4.5677423E-2,7.18923E-1,-2.1532292E0,8.922795E-1,2.650022E-1,-1.4248974E0,-2.6922488E0,8.999978E-1,-2.7742693E-1,3.339985E-1,-1.6032997E0,-1.5823292E0,-7.32256E-2,-2.7233731E-2,-9.003883E-3,9.763581E-3,7.7949065E-1,-9.390259E-3,4.7288556E-3,-1.9647546E-2,3.8485545E-1,2.004406E-3,-2.1293448E-2,-1.6249214E0,3.940095E-3,-9.855305E-3,3.7846443E-1,7.9210806E-1,-4.4978303E-3,8.379229E-2,5.806971E-1,-9.407151E-1,-1.799454E0,4.6062525E-3,-0E0,8.185571E-3,4.391112E-4,-8.010053E-3,4.2451466E-3,6.317929E-3,-2.818788E-3,-1.7069986E-2,5.513976E-4,-8.261536E-3,-1.8979626E-2],"categories":[],"categories_nodes":[],"categories_segments":[],"categories_sizes":[],"default_left":[0,0,0,0,0,0,0,0,0,0,0,0,0,0,0,0,0,0,0,0,0,0,0,0,0,0,0,0,0,0,0,0,0,0,0,0,0,0,0,0,0,0,0,0,0],"id":20,"left_children":[1,3,5,7,9,11,13,15,17,19,21,23,25,-1,-1,-1,27,-1,-1,-1,29,-1,-1,31,-1,-1,33,35,-1,37,39,41,43,-1,-1,-1,-1,-1,-1,-1,-1,-1,-1,-1,-1],"loss_changes":[9.473827E2,3.820598E1,5.4639893E1,3.507904E0,1.806868E1,1.3763123E1,1.9259644E0,2.3024292E0,1.9798838E0,1.6146866E1,5.363943E0,5.7297363E0,3.7303271E0,0E0,0E0,0E0,2.5929642E0,0E0,0E0,0E0,7.6087475E0,0E0,0E0,4.9593506E0,0E0,0E0,2.0146602E-1,2.6680756E0,0E0,1.628032E1,3.6949234E0,1.0942811E1,2.474121E0,0E0,0E0,0E0,0E0,0E0,0E0,0E0,0E0,0E0,0E0,0E0,0E0],"parents":[2147483647,0,0,1,1,2,2,3,3,4,4,5,5,6,6,7,7,8,8,9,9,10,10,11,11,12,12,16,16,20,20,23,23,26,26,27,27,29,29,30,30,31,31,32,32],"right_children":[2,4,6,8,10,12,14,16,18,20,22,24,26,-1,-1,-1,28,-1,-1,-1,30,-1,-1,32,-1,-1,34,36,-1,38,40,42,44,-1,-1,-1,-1,-1,-1,-1,-1,-1,-1,-1,-1],"split_conditions":[1.0086726E-3,9.450986E-4,1.1229606E-3,9.5E1,1.33E2,1.31E2,4.31567E-4,9.1618486E-4,6.7E1,3.8401303E-3,6.5E1,5.5961353E-3,8E1,-2.7233731E-2,-9.003883E-3,9.763581E-3,5.236998E-11,-9.390259E-3,4.7288556E-3,-1.9647546E-2,9.109611E0,2.004406E-3,-2.1293448E-2,4.476509E-3,3.940095E-3,-9.855305E-3,7.7E1,9.498751E0,-4.4978303E-3,4.27708E-3,5.158052E-3,1.09E2,2.0197004E-12,4.6062525E-3,-0E0,8.185571E-3,4.391112E-4,-8.010053E-3,4.2451466E-3,6.317929E-3,-2.818788E-3,-1.7069986E-2,5.513976E-4,-8.261536E-3,-1.8979626E-2],"split_indices":[14,14,14,3,23,23,36,14,5,15,6,15,8,0,0,0,16,0,0,0,11,0,0,15,0,0,6,30,0,15,15,25,16,0,0,0,0,0,0,0,0,0,0,0,0],"split_type":[0,0,0,0,0,0,0,0,0,0,0,0,0,0,0,0,0,0,0,0,0,0,0,0,0,0,0,0,0,0,0,0,0,0,0,0,0,0,0,0,0,0,0,0,0],"sum_hessian":[6.38E2,4.89E2,1.49E2,3.53E2,1.36E2,6.5E1,8.4E1,3.51E2,2E0,1.32E2,4E0,5.8E1,7E0,8.2E1,2E0,2.1E2,1.41E2,1E0,1E0,2E0,1.3E2,1E0,3E0,5.7E1,1E0,2E0,5E0,1.4E2,1E0,5.2E1,7.8E1,1.3E1,4.4E1,4E0,1E0,1.35E2,5E0,1.4E1,3.8E1,7.4E1,4E0,7E0,6E0,5E0,3.9E1],"tree_param":{"num_deleted":"0","num_feature":"38","num_nodes":"45","size_leaf_vector":"1"}},{"base_weights":[-4.339648E-4,6.520372E-1,-2.119413E0,8.144256E-1,-2.645538E-1,-1.4541389E0,-2.6639597E0,9.270067E-1,5.80759E-1,3.4536876E-2,-1.1059402E0,-8.535644E-1,-1.7811341E0,-2.6855996E-2,-4.380266E-3,6.668073E-1,9.425495E-3,6.663113E-1,-3.3621585E-1,2.0428412E-1,-2.1133747E-2,-1.5829425E0,5.262547E-3,3.1517333E-1,-1.0849336E0,-4.2791477E-1,-1.9863071E0,7.844537E-3,4.5200344E-3,7.046686E-1,-6.2598294E-1,6.9181016E-3,-1.4962103E0,-2.0137472E-1,6.7320764E-1,-2.1442974E0,4.71858E-3,4.890432E-3,-1.4015312E-3,-1.2119243E0,8.9982316E-2,-1.2777058E-2,1.475429E-1,-2.4872737E-1,-2.0756338E0,3.8244955E-3,-2.1560632E-3,-7.2786277E-3,7.3596453E-3,-1.101702E-2,3.5058707E-3,4.2671743E-3,-1.9861393E-2,-9.849573E-3,2.8311322E-3,4.7873704E-7,6.9812555E-3,-2.6782012E-2,3.1681438E-3,-1.3327777E-2,-4.949638E-4,-0E0,1.6244454E-3,-1.3242217E-3,4.116603E-3,-7.196534E-3,2.9656237E-3,-2.1259397E-2,-1.326136E-3],"categories":[],"categories_nodes":[],"categories_segments":[],"categories_sizes":[],"default_left":[0,0,0,0,0,0,0,0,0,0,0,0,0,0,0,0,0,0,0,0,0,0,0,0,0,0,0,0,0,0,0,0,0,0,0,0,0,0,0,0,0,0,0,0,0,0,0,0,0,0,0,0,0,0,0,0,0,0,0,0,0,0,0,0,0,0,0,0,0],"id":21,"left_children":[1,3,5,7,9,11,13,15,17,19,21,23,25,-1,-1,27,-1,29,31,33,-1,35,-1,37,39,41,43,-1,45,47,49,-1,51,53,55,57,-1,-1,-1,59,61,-1,63,65,67,-1,-1,-1,-1,-1,-1,-1,-1,-1,-1,-1,-1,-1,-1,-1,-1,-1,-1,-1,-1,-1,-1,-1,-1],"loss_changes":[8.5734106E2,7.082237E1,4.8606323E1,9.9123535E0,1.8264194E1,1.1570404E1,2.3165894E0,3.0252075E-1,1.0769249E1,1.9929333E1,1.5731356E1,7.4495792E0,1.0847305E1,0E0,0E0,1.3979559E0,0E0,6.5459404E0,1.5425587E1,9.884121E0,0E0,1.8481129E1,0E0,4.9926773E-1,3.5037212E0,3.7246647E0,4.9941406E0,0E0,4.3191195E-1,5.9163857E0,2.3196454E0,0E0,6.6560526E0,1.0978855E1,3.3271885E-1,1.6852596E1,0E0,0E0,0E0,2.6054707E0,2.8486008E-2,0E0,4.52155E-1,1.0261048E0,2.9133148E0,0E0,0E0,0E0,0E0,0E0,0E0,0E0,0E0,0E0,0E0,0E0,0E0,0E0,0E0,0E0,0E0,0E0,0E0,0E0,0E0,0E0,0E0,0E0,0E0],"parents":[2147483647,0,0,1,1,2,2,3,3,4,4,5,5,6,6,7,7,8,8,9,9,10,10,11,11,12,12,15,15,17,17,18,18,19,19,21,21,23,23,24,24,25,25,26,26,28,28,29,29,30,30,32,32,33,33,34,34,35,35,39,39,40,40,42,42,43,43,44,44],"right_children":[2,4,6,8,10,12,14,16,18,20,22,24,26,-1,-1,28,-1,30,32,34,-1,36,-1,38,40,42,44,-1,46,48,50,-1,52,54,56,58,-1,-1,-1,60,62,-1,64,66,68,-1,-1,-1,-1,-1,-1,-1,-1,-1,-1,-1,-1,-1,-1,-1,-1,-1,-1,-1,-1,-1,-1,-1,-1],"split_conditions":[1.0166735E-3,9.6343836E-4,1.1248941E-3,9.286122E-4,9.573003E0,9.052807E0,9.6E1,3.5362423E-12,9.424347E0,1.32E2,9.768719E0,1.14E2,4.4316744E-6,-2.6855996E-2,-4.380266E-3,9.326551E0,9.425495E-3,1.35E2,3.6417576E-4,9.123197E0,-2.1133747E-2,8.6E1,5.262547E-3,7.5E1,5.0084367E-3,7.2E1,9.087995E0,7.844537E-3,7.4E1,2.0197004E-12,8E1,6.9181016E-3,9.469697E-4,9.308146E0,9.469697E-4,1.3E2,4.71858E-3,4.890432E-3,-1.4015312E-3,3.7E2,9E1,-1.2777058E-2,7.7E1,7.3E1,9E1,3.8244955E-3,-2.1560632E-3,-7.2786277E-3,7.3596453E-3,-1.101702E-2,3.5058707E-3,4.2671743E-3,-1.9861393E-2,-9.849573E-3,2.8311322E-3,4.7873704E-7,6.9812555E-3,-2.6782012E-2,3.1681438E-3,-1.3327777E-2,-4.949638E-4,-0E0,1.6244454E-3,-1.3242217E-3,4.116603E-3,-7.196534E-3,2.9656237E-3,-2.1259397E-2,-1.326136E-3],"split_indices":[33,33,33,33,31,11,4,16,11,23,31,22,18,0,0,11,0,22,36,11,0,3,0,3,15,3,12,0,5,16,4,0,13,12,13,24,0,0,0,19,3,0,3,3,5,0,0,0,0,0,0,0,0,0,0,0,0,0,0,0,0,0,0,0,0,0,0,0,0],"split_type":[0,0,0,0,0,0,0,0,0,0,0,0,0,0,0,0,0,0,0,0,0,0,0,0,0,0,0,0,0,0,0,0,0,0,0,0,0,0,0,0,0,0,0,0,0,0,0,0,0,0,0,0,0,0,0,0,0,0,0,0,0,0,0,0,0,0,0,0,0],"sum_hessian":[6.18E2,4.73E2,1.45E2,4.02E2,7.1E1,6.7E1,7.8E1,2.69E2,1.33E2,5.3E1,1.8E1,2.5E1,4.2E1,7.7E1,1E0,1.8E1,2.51E2,1.22E2,1.1E1,5E1,3E0,1.4E1,4E0,4E0,2.1E1,6E0,3.6E1,1.5E1,3E0,1.19E2,3E0,6E0,5E0,2.7E1,2.3E1,1.1E1,3E0,3E0,1E0,1.9E1,2E0,2E0,4E0,2E0,3.4E1,1E0,2E0,2E0,1.17E2,2E0,1E0,1E0,4E0,1E1,1.7E1,1E0,2.2E1,9E0,2E0,1.7E1,2E0,1E0,1E0,2E0,2E0,1E0,1E0,3.3E1,1E0],"tree_param":{"num_deleted":"0","num_feature":"38","num_nodes":"69","size_leaf_vector":"1"}},{"base_weights":[-2.9474566E-2,6.731476E-1,-2.086974E0,8.035076E-1,-2.4663122E-1,-1.3836964E0,-2.6787567E0,8.8042676E-1,4.4214115E-1,2.9848836E-2,-1.1840892E0,1.0748116E-1,-1.5108429E0,-2.7034335E0,-2.0360071E-3,8.885588E-1,-9.288223E-3,-1.9426098E-2,5.329693E-1,1.637658E-1,-2.0001609E-2,-1.7182804E0,5.5595897E-3,5.473123E-3,-6.280645E-3,-1.6805645E0,-5.138545E-1,-2.8238563E-2,-2.0285E0,9.625693E-3,7.771056E-1,6.0045916E-1,-5.1198035E-1,-8.411524E-1,3.0927175E-1,-2.211217E-2,-2.778369E-1,-1.7788693E0,-6.538038E-1,1.310464E-1,-1.0075046E0,-7.955141E-4,-2.1390874E0,7.894634E-3,-4.5121377E-3,6.7176577E-3,-4.5514223E-3,4.630295E-3,-1.3496635E-2,4.1347607E-3,-2.2669395E-2,-6.215551E-3,4.2940313E-3,3.7009616E-3,-1.1608181E-2,-9.598E-3,-1.9160828E-2,-1.1436117E-2,-2.091584E-3,4.5410497E-3,-6.921232E-3,-0E0,-1.3909872E-2,-2.225768E-2,-3.694381E-3],"categories":[],"categories_nodes":[],"categories_segments":[],"categories_sizes":[],"default_left":[0,0,0,0,0,0,0,0,0,0,0,0,0,0,0,0,0,0,0,0,0,0,0,0,0,0,0,0,0,0,0,0,0,0,0,0,0,0,0,0,0,0,0,0,0,0,0,0,0,0,0,0,0,0,0,0,0,0,0,0,0,0,0,0,0],"id":22,"left_children":[1,3,5,7,9,11,13,15,17,19,21,23,25,27,-1,29,-1,-1,31,33,-1,35,-1,-1,-1,37,39,-1,41,-1,43,45,47,49,51,-1,53,55,57,59,61,-1,63,-1,-1,-1,-1,-1,-1,-1,-1,-1,-1,-1,-1,-1,-1,-1,-1,-1,-1,-1,-1,-1,-1],"loss_changes":[9.426609E2,5.8526398E1,6.4974304E1,1.1319611E1,1.5961263E1,1.509137E1,4.5949097E0,5.970764E0,1.7572784E1,1.3192851E1,1.4084782E1,2.6002836E0,1.1100174E1,9.3896484E-1,0E0,1.9568176E0,0E0,0E0,5.6055317E0,6.933149E0,0E0,6.947262E0,0E0,0E0,0E0,4.750763E0,4.03994E0,0E0,3.2719574E0,0E0,2.5910568E0,5.6716843E0,4.797344E0,1.1855671E1,4.832366E0,0E0,2.7971373E0,4.054657E0,1.1500628E0,1.8860868E0,2.5687685E0,0E0,1.3725128E0,0E0,0E0,0E0,0E0,0E0,0E0,0E0,0E0,0E0,0E0,0E0,0E0,0E0,0E0,0E0,0E0,0E0,0E0,0E0,0E0,0E0,0E0],"parents":[2147483647,0,0,1,1,2,2,3,3,4,4,5,5,6,6,7,7,8,8,9,9,10,10,11,11,12,12,13,13,15,15,18,18,19,19,21,21,25,25,26,26,28,28,30,30,31,31,32,32,33,33,34,34,36,36,37,37,38,38,39,39,40,40,42,42],"right_children":[2,4,6,8,10,12,14,16,18,20,22,24,26,28,-1,30,-1,-1,32,34,-1,36,-1,-1,-1,38,40,-1,42,-1,44,46,48,50,52,-1,54,56,58,60,62,-1,64,-1,-1,-1,-1,-1,-1,-1,-1,-1,-1,-1,-1,-1,-1,-1,-1,-1,-1,-1,-1,-1,-1],"split_conditions":[1.0061054E-3,9.654597E-4,1.1181888E-3,9.450986E-4,7.523951E-9,3.5622902E-4,1.38E2,1.48E2,3.8401303E-3,1.32E2,9.180096E0,8.4E1,1.31E2,7.9E1,-2.0360071E-3,9.1618486E-4,-9.288223E-3,-1.9426098E-2,9.431768E0,7.5E1,-2.0001609E-2,4.5231353E-3,5.5595897E-3,5.473123E-3,-6.280645E-3,1.104308E-3,9.030619E0,-2.8238563E-2,9.163968E0,9.625693E-3,5.4489652E-11,9.4E1,7.5E1,1.12E2,3.5414385E-9,-2.211217E-2,8.3E1,1.5153006E1,3.5362423E-12,8E1,1.59125E1,-7.955141E-4,8.2E1,7.894634E-3,-4.5121377E-3,6.7176577E-3,-4.5514223E-3,4.630295E-3,-1.3496635E-2,4.1347607E-3,-2.2669395E-2,-6.215551E-3,4.2940313E-3,3.7009616E-3,-1.1608181E-2,-9.598E-3,-1.9160828E-2,-1.1436117E-2,-2.091584E-3,4.5410497E-3,-6.921232E-3,-0E0,-1.3909872E-2,-2.225768E-2,-3.694381E-3],"split_indices":[14,14,14,14,17,36,27,22,15,23,11,5,23,6,0,14,0,0,11,5,0,15,0,0,0,14,11,0,12,0,16,7,7,24,17,0,3,28,16,3,10,0,3,0,0,0,0,0,0,0,0,0,0,0,0,0,0,0,0,0,0,0,0,0,0],"split_type":[0,0,0,0,0,0,0,0,0,0,0,0,0,0,0,0,0,0,0,0,0,0,0,0,0,0,0,0,0,0,0,0,0,0,0,0,0,0,0,0,0,0,0,0,0,0,0,0,0,0,0,0,0,0,0,0,0,0,0,0,0,0,0,0,0],"sum_hessian":[6.5E2,4.85E2,1.65E2,4.25E2,6E1,7.7E1,8.8E1,3.49E2,7.6E1,4.7E1,1.3E1,6E0,7.1E1,8.7E1,1E0,3.48E2,1E0,2E0,7.4E1,4.5E1,2E0,1E1,3E0,4E0,2E0,6E1,1.1E1,7.1E1,1.6E1,2.04E2,1.44E2,7E1,4E0,5E0,4E1,7E0,3E0,5.4E1,6E0,5E0,6E0,1E0,1.5E1,1.43E2,1E0,6.6E1,4E0,2E0,2E0,3E0,2E0,4E0,3.6E1,2E0,1E0,9E0,4.5E1,2E0,4E0,4E0,1E0,2E0,4E0,1.4E1,1E0],"tree_param":{"num_deleted":"0","num_feature":"38","num_nodes":"65","size_leaf_vector":"1"}},{"base_weights":[-7.463073E-3,6.76455E-1,-2.13434E0,8.737507E-1,1.8820368E-1,-1.4958522E0,-2.6354833E0,9.402655E-3,7.6125145E-1,2.9123634E-1,-1.1806481E0,-8.419637E-1,-1.7516462E0,-2.6553895E-2,-4.217171E-3,7.7447826E-1,-4.489576E-3,-7.3434436E-1,4.2985222E-1,-1.9060332E-2,3.5893805E-3,-2.1923086E-2,-5.081035E-1,-1.8495861E0,3.6594197E-3,7.993117E-1,2.7404135E-1,-1.800437E0,2.8377613E-1,4.7303078E-1,-1.3352773E-2,3.479189E-1,-8.4582E-1,-2.6834986E-1,-1.9468163E0,9.0315146E-4,8.092123E-3,-1.54111525E-2,7.677944E-3,3.987374E-3,-2.185853E-2,-1.133751E-2,6.151859E-3,-5.872835E-4,5.733441E-3,-0E0,4.3081883E-3,-1.4712744E-2,-0E0,-5.0527486E-3,1.7121262E-3,-8.284292E-3,-2.0332826E-2],"categories":[],"categories_nodes":[],"categories_segments":[],"categories_sizes":[],"default_left":[0,0,0,0,0,0,0,0,0,0,0,0,0,0,0,0,0,0,0,0,0,0,0,0,0,0,0,0,0,0,0,0,0,0,0,0,0,0,0,0,0,0,0,0,0,0,0,0,0,0,0,0,0],"id":23,"left_children":[1,3,5,7,9,11,13,-1,15,17,19,21,23,-1,-1,25,-1,27,29,-1,-1,-1,31,33,-1,35,37,39,41,43,-1,45,47,49,51,-1,-1,-1,-1,-1,-1,-1,-1,-1,-1,-1,-1,-1,-1,-1,-1,-1,-1],"loss_changes":[9.325398E2,4.6449356E1,4.5560486E1,1.6956482E0,2.0141048E1,1.0141312E1,2.3623657E0,0E0,2.5252304E0,1.905056E1,1.2006787E1,8.534221E0,1.1195023E1,0E0,0E0,1.3264923E0,0E0,1.8029158E1,9.462648E0,0E0,0E0,0E0,5.836832E0,6.6357574E0,0E0,7.214203E-1,8.275842E0,7.831068E0,4.8736525E0,6.2195244E0,0E0,2.0173901E-1,7.301427E0,5.364891E-1,2.3810272E0,0E0,0E0,0E0,0E0,0E0,0E0,0E0,0E0,0E0,0E0,0E0,0E0,0E0,0E0,0E0,0E0,0E0,0E0],"parents":[2147483647,0,0,1,1,2,2,3,3,4,4,5,5,6,6,8,8,9,9,10,10,11,11,12,12,15,15,17,17,18,18,22,22,23,23,25,25,26,26,27,27,28,28,29,29,31,31,32,32,33,33,34,34],"right_children":[2,4,6,8,10,12,14,-1,16,18,20,22,24,-1,-1,26,-1,28,30,-1,-1,-1,32,34,-1,36,38,40,42,44,-1,46,48,50,52,-1,-1,-1,-1,-1,-1,-1,-1,-1,-1,-1,-1,-1,-1,-1,-1,-1,-1],"split_conditions":[1.0110443E-3,9.450986E-4,1.1248941E-3,9.1721845E-4,1.29E2,4.476509E-3,9.6E1,9.402655E-3,5.236998E-11,9.168219E0,9.098989E0,4.150478E-3,3.7E2,-2.6553895E-2,-4.217171E-3,9.405575E0,-4.489576E-3,5.4379714E-9,8.6E1,-1.9060332E-2,3.5893805E-3,-2.1923086E-2,9.300887E0,7.5E1,3.6594197E-3,9.175364E-4,7.6E1,7.3E1,8.12154E-13,4.219457E-3,-1.3352773E-2,6.9E1,9.449514E0,9E1,2.0197004E-12,9.0315146E-4,8.092123E-3,-1.54111525E-2,7.677944E-3,3.987374E-3,-2.185853E-2,-1.133751E-2,6.151859E-3,-5.872835E-4,5.733441E-3,-0E0,4.3081883E-3,-1.4712744E-2,-0E0,-5.0527486E-3,1.7121262E-3,-8.284292E-3,-2.0332826E-2],"split_indices":[14,14,14,14,22,15,4,0,16,12,11,15,19,0,0,11,0,17,6,0,0,0,31,4,0,14,4,6,16,15,0,6,12,3,16,0,0,0,0,0,0,0,0,0,0,0,0,0,0,0,0,0,0],"split_type":[0,0,0,0,0,0,0,0,0,0,0,0,0,0,0,0,0,0,0,0,0,0,0,0,0,0,0,0,0,0,0,0,0,0,0,0,0,0,0,0,0,0,0,0,0,0,0,0,0,0,0,0,0],"sum_hessian":[6.39E2,4.84E2,1.55E2,3.44E2,1.4E2,7E1,8.5E1,2.11E2,1.33E2,1.31E2,9E0,2.1E1,4.9E1,8.4E1,1E0,1.32E2,1E0,1.5E1,1.16E2,6E0,3E0,3E0,1.8E1,4.7E1,2E0,1.25E2,7E0,7E0,8E0,1.14E2,2E0,5E0,1.3E1,3E0,4.4E1,2E0,1.23E2,1E0,6E0,1E0,6E0,1E0,7E0,1.8E1,9.6E1,1E0,4E0,7E0,6E0,2E0,1E0,4E0,4E1],"tree_param":{"num_deleted":"0","num_feature":"38","num_nodes":"53","size_leaf_vector":"1"}},{"base_weights":[1.5566227E-2,7.041709E-1,-2.0026758E0,8.160957E-1,-3.3818893E-2,-1.2963088E0,-2.6496675E0,8.881836E-1,6.027236E-1,-1.1505507E0,1.4771575E-1,-2.9610333E-1,-1.4355254E0,-9.8083615E-3,-2.6775295E-2,7.048257E-1,9.1775584E-1,-1.5793096E-2,6.391514E-1,-1.9121736E0,2.5452134E-1,-1.0468767E0,2.9011253E-1,1.7810859E-1,-1.1955013E-2,-1.5015379E0,4.8392946E-3,-8.218641E-4,7.258952E-1,1.9375295E-3,9.1943E-3,6.827828E-1,-6.191456E-1,-2.4180686E-2,2.5865047E-3,-0E0,3.3638107E-3,-1.9937238E-2,5.3121196E-3,5.2069753E-1,-5.656615E-1,4.074581E-3,-3.0662668E-1,-1.5787537E0,-2.083123E-1,7.6123863E-3,1.3947961E-3,6.992162E-3,-4.4671292E-3,3.40841E-3,-1.086088E-2,5.5847126E-3,-4.2623836E-3,-2.0061288E-2,2.127799E-3,-4.545987E-3,-0E0,-9.434919E-3,-1.7908396E-2,2.8552637E-3,-1.1418335E-2],"categories":[],"categories_nodes":[],"categories_segments":[],"categories_sizes":[],"default_left":[0,0,0,0,0,0,0,0,0,0,0,0,0,0,0,0,0,0,0,0,0,0,0,0,0,0,0,0,0,0,0,0,0,0,0,0,0,0,0,0,0,0,0,0,0,0,0,0,0,0,0,0,0,0,0,0,0,0,0,0,0],"id":24,"left_children":[1,3,5,7,9,11,13,15,17,19,21,23,25,-1,-1,27,29,-1,31,33,35,37,39,41,-1,43,-1,-1,45,-1,-1,47,49,-1,-1,-1,-1,-1,-1,51,53,-1,55,57,59,-1,-1,-1,-1,-1,-1,-1,-1,-1,-1,-1,-1,-1,-1,-1,-1],"loss_changes":[8.796155E2,3.9092743E1,6.974982E1,5.6220093E0,1.3041946E1,1.0402145E1,8.6724854E-1,8.3924866E-1,9.420467E0,1.0283669E1,9.583871E0,5.0062265E0,9.571259E0,0E0,0E0,9.0338326E-1,2.3254395E-2,0E0,6.248642E0,7.4306316E0,8.033225E-2,1.0170593E1,1.0156476E1,1.0244112E0,0E0,6.182846E0,0E0,0E0,7.57143E-1,0E0,0E0,2.2494316E0,2.237742E0,0E0,0E0,0E0,0E0,0E0,0E0,1.6820374E0,1.2940713E1,0E0,1.3126028E-1,6.524933E0,2.7166986E0,0E0,0E0,0E0,0E0,0E0,0E0,0E0,0E0,0E0,0E0,0E0,0E0,0E0,0E0,0E0,0E0],"parents":[2147483647,0,0,1,1,2,2,3,3,4,4,5,5,6,6,7,7,8,8,9,9,10,10,11,11,12,12,15,15,16,16,18,18,19,19,20,20,21,21,22,22,23,23,25,25,28,28,31,31,32,32,39,39,40,40,42,42,43,43,44,44],"right_children":[2,4,6,8,10,12,14,16,18,20,22,24,26,-1,-1,28,30,-1,32,34,36,38,40,42,-1,44,-1,-1,46,-1,-1,48,50,-1,-1,-1,-1,-1,-1,52,54,-1,56,58,60,-1,-1,-1,-1,-1,-1,-1,-1,-1,-1,-1,-1,-1,-1,-1,-1],"split_conditions":[1.0086726E-3,9.654597E-4,1.1229606E-3,9.3507784E-4,7.6E1,9.172346E0,9.469697E-4,6.6780886E-12,3.8401303E-3,1.23E2,1.1E2,8.1E1,9.757941E0,-9.8083615E-3,-2.6775295E-2,1.06E2,6.6E1,-1.5793096E-2,1.35E2,9.2E1,7.6E1,7.9E1,7.523951E-9,1.0613103E-3,-1.1955013E-2,1.31E2,4.8392946E-3,-8.218641E-4,8.8E1,1.9375295E-3,9.1943E-3,5.5679964E-11,1.5579166E1,-2.4180686E-2,2.5865047E-3,-0E0,3.3638107E-3,-1.9937238E-2,5.3121196E-3,1.24E2,1.16E2,4.074581E-3,6.8E1,3.7453073E-4,8.1E1,7.6123863E-3,1.3947961E-3,6.992162E-3,-4.4671292E-3,3.40841E-3,-1.086088E-2,5.5847126E-3,-4.2623836E-3,-2.0061288E-2,2.127799E-3,-4.545987E-3,-0E0,-9.434919E-3,-1.7908396E-2,2.8552637E-3,-1.1418335E-2],"split_indices":[14,14,14,14,5,12,13,16,15,27,22,3,31,0,0,23,3,0,22,7,3,7,17,14,0,23,0,0,3,0,0,16,9,0,0,0,0,0,0,25,23,0,3,36,5,0,0,0,0,0,0,0,0,0,0,0,0,0,0,0,0],"split_type":[0,0,0,0,0,0,0,0,0,0,0,0,0,0,0,0,0,0,0,0,0,0,0,0,0,0,0,0,0,0,0,0,0,0,0,0,0,0,0,0,0,0,0,0,0,0,0,0,0,0,0,0,0,0,0,0,0,0,0,0,0],"sum_hessian":[6.31E2,4.71E2,1.6E2,4.09E2,6.2E1,7.8E1,8.2E1,3.03E2,1.06E2,8E0,5.4E1,1E1,6.8E1,2E0,8E1,4.6E1,2.57E2,1E0,1.05E2,5E0,3E0,5E0,4.9E1,7E0,3E0,6.6E1,2E0,1E0,4.5E1,1E0,2.56E2,1.02E2,3E0,4E0,1E0,1E0,2E0,3E0,2E0,3.9E1,1E1,5E0,2E0,6.2E1,4E0,4.2E1,3E0,1.01E2,1E0,1E0,2E0,3.8E1,1E0,3E0,7E0,1E0,1E0,1.7E1,4.5E1,3E0,1E0],"tree_param":{"num_deleted":"0","num_feature":"38","num_nodes":"61","size_leaf_vector":"1"}},{"base_weights":[-2.495166E-2,6.0583854E-1,-2.1832068E0,7.7790296E-1,-2.9736993E-1,-1.538535E0,-2.631855E0,8.586487E-1,4.1467905E-1,-5.8064246E-1,5.2137864E-1,-0E0,-1.5914786E0,-9.251117E-3,-2.6609814E0,9.2715705E-3,7.483336E-1,-1.907393E-2,5.021993E-1,5.8123212E-2,-1.073761E0,-2.4992544E-3,5.774401E-1,-2.3886068E-3,2.8863233E-3,-7.9491144E-1,-1.7328938E0,-2.9523097E-2,-2.340009E0,7.612024E-1,-4.444794E-3,5.642678E-1,-7.311012E-1,4.007097E-1,-1.1910477E0,-1.6164614E0,-2.719097E-1,-0E0,6.0326827E-1,-6.8608694E-2,-1.1858547E0,-1.1728104E0,-1.9828515E0,-6.9283766E-1,-2.3995686E0,4.639404E-3,8.110143E-3,6.357973E-3,-5.1569296E-3,1.948318E-3,-1.1380227E-2,-5.3705787E-3,6.444946E-3,-2.0180179E-2,2.7526184E-3,3.1944828E-3,-1.854865E-2,2.751553E-3,-1.1550331E-2,6.24268E-3,6.2636565E-4,3.1894287E-3,-8.594074E-3,-1.6868194E-3,-1.3106031E-2,-1.6231101E-2,-2.190382E-3,-8.695442E-3,-2.1029787E-2,-5.248899E-4,-9.367675E-3,-2.4547342E-2,-8.30837E-3],"categories":[],"categories_nodes":[],"categories_segments":[],"categories_sizes":[],"default_left":[0,0,0,0,0,0,0,0,0,0,0,0,0,0,0,0,0,0,0,0,0,0,0,0,0,0,0,0,0,0,0,0,0,0,0,0,0,0,0,0,0,0,0,0,0,0,0,0,0,0,0,0,0,0,0,0,0,0,0,0,0,0,0,0,0,0,0,0,0,0,0,0,0],"id":25,"left_children":[1,3,5,7,9,11,13,15,17,19,21,23,25,-1,27,-1,29,-1,31,33,35,-1,37,-1,-1,39,41,-1,43,45,-1,47,49,51,53,55,57,-1,59,61,63,65,67,69,71,-1,-1,-1,-1,-1,-1,-1,-1,-1,-1,-1,-1,-1,-1,-1,-1,-1,-1,-1,-1,-1,-1,-1,-1,-1,-1,-1,-1],"loss_changes":[8.727804E2,7.736273E1,3.747223E1,1.1746704E1,1.8862976E1,5.208664E0,1.3554688E0,1.7081757E0,1.666918E1,1.9063206E1,1.0851178E0,2.807261E-1,5.128525E0,0E0,2.2998047E-1,0E0,2.4576263E0,0E0,6.213587E0,1.1952854E1,1.4167244E1,0E0,2.4597931E-1,0E0,0E0,2.9165683E0,4.35878E0,0E0,2.3448944E0,1.4952164E0,0E0,5.9790688E0,1.8231707E0,5.3863735E0,8.005324E0,9.976635E0,7.652691E0,0E0,1.0791683E-1,1.860525E0,5.192318E-1,7.190958E0,2.2874756E0,3.2050478E-1,1.2666321E0,0E0,0E0,0E0,0E0,0E0,0E0,0E0,0E0,0E0,0E0,0E0,0E0,0E0,0E0,0E0,0E0,0E0,0E0,0E0,0E0,0E0,0E0,0E0,0E0,0E0,0E0,0E0,0E0],"parents":[2147483647,0,0,1,1,2,2,3,3,4,4,5,5,6,6,7,7,8,8,9,9,10,10,11,11,12,12,14,14,16,16,18,18,19,19,20,20,22,22,25,25,26,26,28,28,29,29,31,31,32,32,33,33,34,34,35,35,36,36,38,38,39,39,40,40,41,41,42,42,43,43,44,44],"right_children":[2,4,6,8,10,12,14,16,18,20,22,24,26,-1,28,-1,30,-1,32,34,36,-1,38,-1,-1,40,42,-1,44,46,-1,48,50,52,54,56,58,-1,60,62,64,66,68,70,72,-1,-1,-1,-1,-1,-1,-1,-1,-1,-1,-1,-1,-1,-1,-1,-1,-1,-1,-1,-1,-1,-1,-1,-1,-1,-1,-1,-1],"split_conditions":[1.0306825E-3,9.654597E-4,1.1229606E-3,9.450986E-4,9.280917E0,1E2,1.4420834E1,9.1721845E-4,3.8401303E-3,3.59E2,1.5308333E1,7.7E1,4.1966612E-9,-9.251117E-3,1.6E1,9.2715705E-3,5.4489652E-11,-1.907393E-2,9.4E1,9.222709E0,1.26E2,-2.4992544E-3,9.469697E-4,-2.3886068E-3,2.8863233E-3,1.6038462E1,9.039219E0,-2.9523097E-2,1.58125E1,1.13E2,-4.444794E-3,9.431768E0,7.9E1,8.877308E0,8.4E1,3.9253208E-1,6.958343E-9,-0E0,1.6491667E1,8.1E1,4.240405E-3,9.086928E0,9.300887E0,7.7E1,4.4820487E-1,4.639404E-3,8.110143E-3,6.357973E-3,-5.1569296E-3,1.948318E-3,-1.1380227E-2,-5.3705787E-3,6.444946E-3,-2.0180179E-2,2.7526184E-3,3.1944828E-3,-1.854865E-2,2.751553E-3,-1.1550331E-2,6.24268E-3,6.2636565E-4,3.1894287E-3,-8.594074E-3,-1.6868194E-3,-1.3106031E-2,-1.6231101E-2,-2.190382E-3,-8.695442E-3,-2.1029787E-2,-5.248899E-4,-9.367675E-3,-2.4547342E-2,-8.30837E-3],"split_indices":[33,33,33,33,30,25,9,33,15,19,10,3,17,0,10,0,16,0,7,30,27,0,13,0,0,29,11,0,29,23,0,11,3,11,7,37,17,0,10,3,15,30,31,3,37,0,0,0,0,0,0,0,0,0,0,0,0,0,0,0,0,0,0,0,0,0,0,0,0,0,0,0,0],"split_type":[0,0,0,0,0,0,0,0,0,0,0,0,0,0,0,0,0,0,0,0,0,0,0,0,0,0,0,0,0,0,0,0,0,0,0,0,0,0,0,0,0,0,0,0,0,0,0,0,0,0,0,0,0,0,0,0,0,0,0,0,0,0,0,0,0,0,0,0,0,0,0,0,0],"sum_hessian":[6.39E2,4.95E2,1.44E2,4.16E2,7.9E1,6.1E1,8.3E1,3.39E2,7.7E1,5.9E1,2E1,2E0,5.9E1,2E0,8.1E1,2.04E2,1.35E2,2E0,7.5E1,2.6E1,3.3E1,1E0,1.9E1,1E0,1E0,1E1,4.9E1,3.8E1,4.3E1,1.34E2,1E0,7.2E1,3E0,2.1E1,5E0,1.9E1,1.4E1,1E0,1.8E1,4E0,6E0,1.7E1,3.2E1,2E0,4.1E1,2.1E1,1.13E2,6.8E1,4E0,1E0,2E0,4E0,1.7E1,3E0,2E0,2E0,1.7E1,9E0,5E0,1.7E1,1E0,3E0,1E0,1E0,5E0,1.1E1,6E0,4E0,2.8E1,1E0,1E0,3.9E1,2E0],"tree_param":{"num_deleted":"0","num_feature":"38","num_nodes":"73","size_leaf_vector":"1"}},{"base_weights":[3.6923527E-3,6.464965E-1,-2.1151733E0,8.6923873E-1,1.2824245E-1,-1.4170854E0,-2.5871994E0,9.45851E-3,8.126616E-1,2.705229E-1,-7.908786E-1,-8.475194E-1,-1.8582715E0,-3.3630054E-3,-2.6082994E-2,2.0427637E-1,8.1717885E-1,3.3226928E-1,-1.307241E0,-1.4087126E0,1.0966443E-1,-1.4179009E0,-1.2797484E-1,-1.9876596E0,-3.659462E-1,4.405097E-3,-8.409519E-4,5.183521E-1,8.279099E-3,-1.2614763E-1,5.8407784E-1,4.069423E-3,-1.8625224E-2,-2.0604085E-2,-6.42567E-2,4.4340742E-1,-1.23013975E-2,-1.6052895E0,-3.7454095E-2,4.0723994E-1,-7.3565245E-1,-2.0720713E0,-4.7579203E-3,-6.945861E-3,-0E0,-4.295618E-3,6.8251602E-3,2.7034627E-3,-1.7532729E-2,6.094271E-3,-6.7193117E-3,-6.498173E-3,2.1958777E-3,5.0282404E-3,-0E0,-1.7097184E-2,-7.3856546E-4,1.8318935E-3,-2.8937047E-3,5.4143313E-3,-2.160564E-3,-8.561914E-3,-0E0,-2.242949E-2,-1.2003206E-2],"categories":[],"categories_nodes":[],"categories_segments":[],"categories_sizes":[],"default_left":[0,0,0,0,0,0,0,0,0,0,0,0,0,0,0,0,0,0,0,0,0,0,0,0,0,0,0,0,0,0,0,0,0,0,0,0,0,0,0,0,0,0,0,0,0,0,0,0,0,0,0,0,0,0,0,0,0,0,0,0,0,0,0,0,0],"id":26,"left_children":[1,3,5,7,9,11,13,-1,15,17,19,21,23,-1,-1,25,27,29,31,33,35,37,39,41,43,-1,-1,45,-1,47,49,-1,-1,-1,51,53,-1,55,57,59,61,63,-1,-1,-1,-1,-1,-1,-1,-1,-1,-1,-1,-1,-1,-1,-1,-1,-1,-1,-1,-1,-1,-1,-1],"loss_changes":[8.661005E2,5.6122086E1,4.47016E1,5.3356934E-1,1.9516314E1,1.3734146E1,2.9603271E0,0E0,2.9156494E-1,1.2904192E1,1.1412115E1,1.1565989E1,5.6022873E0,0E0,0E0,2.7705517E-1,8.3984375E-2,1.4548632E1,5.6627674E0,1.0169256E1,4.4911313E0,3.9144783E0,4.8857613E0,2.715538E0,4.292332E-1,0E0,0E0,1.8746114E0,0E0,2.9653818E1,2.982195E0,0E0,0E0,0E0,1.0167556E0,1.969434E-1,0E0,1.9343338E0,2.3037879E-1,8.186549E-1,6.1009073E-1,1.2833328E0,0E0,0E0,0E0,0E0,0E0,0E0,0E0,0E0,0E0,0E0,0E0,0E0,0E0,0E0,0E0,0E0,0E0,0E0,0E0,0E0,0E0,0E0,0E0],"parents":[2147483647,0,0,1,1,2,2,3,3,4,4,5,5,6,6,8,8,9,9,10,10,11,11,12,12,15,15,16,16,17,17,18,18,19,19,20,20,21,21,22,22,23,23,24,24,27,27,29,29,30,30,34,34,35,35,37,37,38,38,39,39,40,40,41,41],"right_children":[2,4,6,8,10,12,14,-1,16,18,20,22,24,-1,-1,26,28,30,32,34,36,38,40,42,44,-1,-1,46,-1,48,50,-1,-1,-1,52,54,-1,56,58,60,62,64,-1,-1,-1,-1,-1,-1,-1,-1,-1,-1,-1,-1,-1,-1,-1,-1,-1,-1,-1,-1,-1,-1,-1],"split_conditions":[1.0166735E-3,9.450986E-4,1.1229606E-3,9.0581446E-4,3.9558185E-4,9.063813E0,6.8E1,9.45851E-3,7E1,9.1E1,9.177496E0,9.086928E0,1.29E2,-3.3630054E-3,-2.6082994E-2,8E1,3.1571474E-9,9.102418E0,7.3E1,4.0620964E-4,8.5E1,9E1,4.476509E-3,1.67375E1,7.3E1,4.405097E-3,-8.409519E-4,1.55375E1,8.279099E-3,9.056301E0,8.6E1,4.069423E-3,-1.8625224E-2,-2.0604085E-2,7.1E1,9E1,-1.23013975E-2,8.2E1,9.1E1,1.0613103E-3,8.2E1,1.104308E-3,-4.7579203E-3,-6.945861E-3,-0E0,-4.295618E-3,6.8251602E-3,2.7034627E-3,-1.7532729E-2,6.094271E-3,-6.7193117E-3,-6.498173E-3,2.1958777E-3,5.0282404E-3,-0E0,-1.7097184E-2,-7.3856546E-4,1.8318935E-3,-2.8937047E-3,5.4143313E-3,-2.160564E-3,-8.561914E-3,-0E0,-2.242949E-2,-1.2003206E-2],"split_indices":[14,14,14,14,36,11,8,0,4,4,30,30,23,0,0,3,17,11,6,36,6,3,15,10,3,0,0,10,0,11,6,0,0,0,6,4,0,6,3,14,3,14,0,0,0,0,0,0,0,0,0,0,0,0,0,0,0,0,0,0,0,0,0,0,0],"split_type":[0,0,0,0,0,0,0,0,0,0,0,0,0,0,0,0,0,0,0,0,0,0,0,0,0,0,0,0,0,0,0,0,0,0,0,0,0,0,0,0,0,0,0,0,0,0,0,0,0,0,0,0,0,0,0,0,0,0,0,0,0,0,0,0,0],"sum_hessian":[6.34E2,4.87E2,1.47E2,3.4E2,1.47E2,6.1E1,8.6E1,1.37E2,2.03E2,1.28E2,1.9E1,2.8E1,3.3E1,1E0,8.5E1,2E0,2.01E2,1.24E2,4E0,1.1E1,8E0,1.5E1,1.3E1,3E1,3E0,1E0,1E0,9E0,1.92E2,4.4E1,8E1,1E0,3E0,7E0,4E0,7E0,1E0,1.3E1,2E0,7E0,6E0,2.8E1,2E0,1E0,2E0,1E0,8E0,3.6E1,8E0,7.9E1,1E0,1E0,3E0,6E0,1E0,1.2E1,1E0,1E0,1E0,6E0,1E0,5E0,1E0,2.2E1,6E0],"tree_param":{"num_deleted":"0","num_feature":"38","num_nodes":"65","size_leaf_vector":"1"}},{"base_weights":[1.8464653E-2,6.1740065E-1,-2.1483214E0,7.7252215E-1,-2.6298627E-1,-1.5131676E0,-2.5328526E0,8.671075E-1,5.273564E-1,-1.4498758E-1,-2.325716E-2,-7.163365E-2,-1.6228637E0,-2.5771825E-2,-9.6587783E-1,6.7804337E-1,8.917174E-3,-1.884368E-2,5.840882E-1,-1.8592626E-2,-4.3529175E-2,2.1338531E-1,-6.5585473E-3,-2.4351442E-2,-1.4360204E0,-1.1486889E-2,-1.5872223E-3,7.199118E-1,-4.2741387E-3,6.2398624E-1,-4.383631E-1,-2.811597E-1,5.596051E-1,-0E0,2.891378E-3,-7.737105E-1,-1.657083E0,7.841092E-3,2.1947501E-3,6.463635E-3,-9.247008E-3,3.5378514E-3,-1.1177237E-2,1.5083292E-3,-8.179694E-3,-0E0,5.8481535E-3,1.87718E-3,-1.09091075E-2,-1.8193146E-2,-3.9716945E-3],"categories":[],"categories_nodes":[],"categories_segments":[],"categories_sizes":[],"default_left":[0,0,0,0,0,0,0,0,0,0,0,0,0,0,0,0,0,0,0,0,0,0,0,0,0,0,0,0,0,0,0,0,0,0,0,0,0,0,0,0,0,0,0,0,0,0,0,0,0,0,0],"id":27,"left_children":[1,3,5,7,9,11,13,15,17,19,-1,21,23,-1,25,27,-1,-1,29,-1,31,33,-1,-1,35,-1,-1,37,-1,